<?xml version="1.0"?>
<opencv_storage>
<my_svm type_id="opencv-ml-svm">
  <svm_type>C_SVC</svm_type>
  <kernel><type>LINEAR</type></kernel>
  <C>1.</C>
  <term_criteria><epsilon>2.2204460492503131e-16</epsilon>
    <iterations>10000</iterations></term_criteria>
  <var_all>3888</var_all>
  <var_count>3888</var_count>
  <class_count>6</class_count>
  <class_labels type_id="opencv-matrix">
    <rows>1</rows>
    <cols>6</cols>
    <dt>i</dt>
    <data>
      1 2 3 4 5 6</data></class_labels>
  <sv_total>15</sv_total>
  <support_vectors>
    <_>
      3.27573786e-03 8.76859296e-04 -1.44126767e-03 3.34936165e-04
      5.08878473e-03 9.15650962e-05 -4.53418412e-04 2.24271463e-03
      6.34491723e-03 8.39153130e-04 -1.27254729e-03 -2.07008678e-03
      -1.82072268e-04 1.42377670e-04 -8.54465994e-04 8.72384757e-04
      4.22890531e-03 1.09683927e-02 5.47942473e-03 -4.02997574e-03
      -3.52841965e-03 -8.61139968e-04 3.72188957e-03 -2.32574646e-03
      2.77910847e-03 2.46115378e-03 1.53694162e-02 5.55072259e-03
      8.81286920e-04 -1.45075272e-03 -1.20319899e-04 1.56216687e-02
      5.50680654e-03 1.59300994e-02 7.96233246e-04 9.56251658e-03
      3.83175910e-03 5.58240572e-04 -1.90786857e-04 2.34859693e-03
      1.08825034e-02 9.25830286e-03 2.12341677e-02 2.53799022e-03
      7.71070598e-03 9.68081702e-04 -1.72691114e-04 1.52103417e-03
      3.27583752e-03 6.06954889e-03 3.33442958e-03 2.98161525e-03
      2.16770731e-03 3.60409706e-03 7.35469302e-03 4.83925454e-04
      -1.38717354e-03 -1.94873312e-03 1.30942287e-02 1.42355240e-03
      -3.13323596e-03 2.08964152e-03 1.30484905e-02 1.06889028e-02
      -1.20481662e-02 -3.90414731e-03 -8.68245901e-04 1.80302595e-03
      -5.17649343e-04 3.35589796e-03 5.76704554e-03 2.55844705e-02
      3.96780856e-02 -5.01879398e-03 -2.84128380e-03 -3.22975311e-03
      1.70001928e-02 -4.86952811e-03 5.45934541e-03 1.78845564e-03
      2.97594052e-02 2.98241787e-02 -2.41598557e-03 -2.40456982e-04
      2.50881026e-03 4.68582809e-02 1.47359520e-02 1.32315159e-02
      5.39952330e-03 2.30478402e-02 2.49123778e-02 4.73683095e-03
      3.49124940e-03 1.47986840e-02 3.86829935e-02 3.83373462e-02
      4.40076999e-02 2.14423216e-03 2.16838457e-02 1.23404264e-02
      -2.79365992e-03 6.70291157e-03 2.38899607e-02 3.15945707e-02
      1.59239639e-02 3.42752486e-02 4.40972578e-03 1.49195520e-02
      -1.07551143e-02 2.00292227e-04 6.65758830e-03 -4.43096878e-03
      3.39277424e-02 1.19666047e-02 -5.61244227e-03 -7.89842010e-03
      -9.94592905e-03 -1.00285187e-02 -6.84563862e-03 1.35730244e-02
      7.15332991e-03 2.65599731e-02 6.44855085e-04 -4.64236690e-03
      -1.21708363e-02 -1.22962212e-02 -1.11001171e-02 3.33955605e-03
      2.35601924e-02 1.49458265e-02 3.91120240e-02 -2.77460013e-02
      -1.14116305e-02 -8.61723907e-03 -1.25848304e-03 -1.18995840e-02
      5.21756243e-03 3.20301577e-02 2.04894543e-02 8.93647596e-02
      1.17351264e-02 9.18976683e-03 8.16830806e-03 -1.32419234e-02
      -1.73006614e-03 8.09619296e-03 2.28161141e-02 2.82767024e-02
      1.18296407e-01 3.80270481e-02 2.31018290e-02 -7.43858749e-04
      -9.97795071e-03 -1.79788321e-02 -2.42288895e-02 3.63809010e-03
      5.98991774e-02 6.19715862e-02 1.53325209e-02 6.58716708e-02
      1.47939268e-02 -4.78287926e-03 -6.70112204e-03 -1.16021214e-02
      1.10916868e-02 1.00253951e-02 6.56241030e-02 2.53354404e-02
      5.98516427e-02 5.38134994e-03 -1.27865449e-02 -3.58052924e-02
      -1.79781206e-02 2.73707509e-02 1.94496270e-02 9.88225937e-02
      2.83606201e-02 1.09169874e-02 -1.52762383e-02 -3.31633277e-02
      -6.18355051e-02 -1.64326541e-02 3.37698348e-02 2.36987546e-02
      1.50733693e-02 -6.43309625e-03 -1.21687399e-02 -7.35581527e-03
      -2.24296525e-02 -3.74893732e-02 2.21955553e-02 6.01183362e-02
      1.55492695e-02 6.79933727e-02 3.85204591e-02 1.26570603e-02
      -1.20886266e-02 -5.92384040e-02 -4.08972204e-02 -6.28422154e-03
      2.67326850e-02 5.65991662e-02 7.93031305e-02 2.04434637e-02
      2.69818828e-02 2.20965082e-03 -5.56077845e-02 -5.91984466e-02
      -8.83353055e-02 -3.52353379e-02 -2.94932351e-03 -3.83814238e-02
      -1.94961522e-02 1.12276236e-02 5.39776869e-03 -2.55159754e-02
      9.14871879e-03 -5.18575450e-03 -6.88318629e-03 1.07393237e-02
      4.72853109e-02 2.79689431e-02 4.69739623e-02 -2.37154448e-03
      -5.13061928e-03 -4.09706943e-02 -4.47188281e-02 -2.78591327e-02
      -8.43228830e-04 8.36934224e-02 6.76068142e-02 4.65626642e-02
      -2.07505859e-02 -4.44197804e-02 -9.69864056e-02 -8.04479346e-02
      5.10683889e-03 1.40260048e-02 4.45360951e-02 -7.99797344e-05
      2.43443903e-02 -9.55976080e-03 -5.06426059e-02 -9.60839689e-02
      -1.81603488e-02 4.73134872e-03 4.33068834e-02 1.06195696e-01
      5.28323948e-02 2.38467380e-02 -2.48134285e-02 -1.14632793e-01
      -6.87137395e-02 -8.60483050e-02 -3.97313721e-02 9.95220020e-02
      8.23185518e-02 1.69584956e-02 2.43574176e-02 -2.08344143e-02
      -6.89019784e-02 -6.50490448e-02 -1.10170178e-01 -7.17873052e-02
      -4.60757762e-02 -3.60563882e-02 -1.34825498e-01 1.68889121e-04
      2.95909513e-02 3.80585529e-02 -1.27945479e-03 -9.23522096e-03
      -1.18574891e-02 -6.95762504e-03 1.23813683e-02 -8.73531122e-03
      -1.34883327e-02 4.67924075e-03 -2.80749705e-03 -9.73971635e-02
      -4.11866829e-02 -5.58059402e-02 -5.85405193e-02 5.18727005e-02
      5.81865944e-03 2.30657998e-02 4.15244186e-03 -7.68275261e-02
      -1.54003441e-01 -7.72080496e-02 -5.62793249e-03 1.02382591e-02
      6.42125010e-02 5.38502336e-02 6.93543330e-02 -7.05378652e-02
      -1.50665030e-01 -1.61544949e-01 -2.69932002e-02 -6.31903159e-03
      4.98967245e-02 1.14098087e-01 7.92833865e-02 3.52691226e-02
      -4.15451825e-02 -1.56792238e-01 -3.04284431e-02 -1.19482152e-01
      -9.71568301e-02 -1.19127836e-02 1.41165838e-01 8.80712196e-02
      3.73487435e-02 -2.89394404e-03 -1.48027325e-02 1.12689678e-02
      -1.67193010e-01 -1.15614459e-01 -5.04196584e-02 -7.91348740e-02
      -4.14865203e-02 2.88317651e-02 4.24306579e-02 9.17014107e-02
      -1.30779222e-02 -2.26345751e-02 -3.63265760e-02 -1.09629603e-02
      5.76780085e-03 -7.63513986e-03 -9.55040008e-03 6.58334699e-04
      -8.68048985e-03 -4.62251231e-02 -3.82346027e-02 -4.95884046e-02
      -1.85072962e-02 2.82632541e-02 -7.05459621e-03 -4.76704091e-02
      -4.28093672e-02 -6.74033687e-02 -9.23928320e-02 -6.01746440e-02
      -4.34944555e-02 3.77507322e-02 1.03739105e-01 2.21023057e-02
      4.64887060e-02 -3.74698974e-02 -1.71022892e-01 -1.65545031e-01
      -3.29081453e-02 -2.70549487e-02 3.00879944e-02 7.83344284e-02
      5.87281361e-02 5.35976626e-02 -2.51801591e-02 -1.39003411e-01
      -5.48133580e-03 3.76110966e-03 -3.91433015e-02 -5.22975177e-02
      4.30441424e-02 2.71319821e-02 4.90899011e-03 -2.93110441e-02
      -4.85870838e-02 1.37285590e-02 -2.39530834e-03 -8.13906565e-02
      -5.40336855e-02 -5.50876781e-02 2.26586759e-02 2.54106373e-02
      1.91030242e-02 1.84763018e-02 -3.47360037e-03 -1.51294004e-03
      -2.42370577e-03 -2.56730709e-03 8.43090937e-04 -3.78865725e-03
      -8.95392243e-03 -6.38388842e-03 -5.18591469e-03 -2.71038408e-03
      -2.28421148e-02 -2.78921071e-02 -8.00403953e-03 -7.05533475e-03
      -1.94934930e-03 -1.00205885e-02 -1.14586400e-02 -1.28936991e-02
      -4.70869429e-02 -3.75047028e-02 1.48660329e-04 1.76827032e-02
      4.23164330e-02 2.61255121e-03 1.54427812e-03 -9.86123364e-03
      -3.65068391e-02 -5.24509177e-02 -3.02051213e-02 1.75760388e-02
      2.09011715e-02 4.48872000e-02 2.29820814e-02 1.99332628e-02
      -6.66316925e-03 -2.91154049e-02 -1.10667869e-02 5.01446240e-03
      1.05124265e-02 -7.70313526e-03 1.67387072e-02 -3.46827507e-03
      3.12773767e-03 -6.35209074e-03 1.44946971e-03 -4.05361271e-03
      2.53844424e-03 2.57997978e-02 -1.83460314e-03 -3.09242141e-02
      7.43213983e-04 3.11132129e-02 1.74502749e-02 1.87468901e-02
      2.94433697e-03 7.69268547e-04 5.83000714e-04 9.93381022e-04
      6.64600823e-03 3.04036192e-03 7.16054253e-03 3.98182136e-04
      4.00708616e-03 3.70715675e-03 8.69183626e-04 6.68081862e-04
      2.18946370e-03 8.39308091e-03 6.52905181e-03 1.49966897e-02
      2.93300278e-03 7.29028834e-03 3.75838019e-03 4.65364807e-04
      3.47909052e-03 5.01354737e-03 5.35526965e-03 3.63614457e-03
      5.01478836e-03 4.58519906e-03 6.99056126e-03 5.19246608e-03
      1.32486818e-03 5.61186904e-03 1.04709612e-02 -7.41283502e-03
      8.85791669e-05 2.37370702e-03 2.24124594e-03 4.08005435e-03
      5.08641824e-03 1.80395786e-03 6.29369961e-03 7.58010102e-03
      4.43597138e-03 9.57742974e-04 1.35895726e-03 1.88719295e-03
      5.53274201e-03 4.52816300e-03 1.29853515e-03 3.79957817e-03
      2.33609439e-03 3.18132248e-03 6.66467007e-04 9.45234031e-04
      7.56882713e-04 4.26724460e-03 1.33713111e-02 1.64927368e-03
      1.22836232e-03 3.19096772e-03 2.44431235e-02 8.09023343e-03
      6.49535237e-03 2.94172834e-03 9.78945196e-03 2.25031208e-02
      6.41698204e-03 5.16752154e-03 1.29443817e-02 2.87467279e-02
      3.11987791e-02 4.13205177e-02 5.32365870e-03 2.06216294e-02
      2.84669101e-02 -1.88041059e-03 9.43066180e-03 3.19587216e-02
      2.85445619e-02 2.14601718e-02 5.18380739e-02 1.25289066e-02
      2.88543366e-02 3.67538221e-02 -8.42098333e-03 1.22266812e-02
      4.25116383e-02 -2.89108343e-02 4.86520724e-03 7.53511582e-03
      1.09716728e-02 2.70197392e-02 1.48756206e-02 2.44025234e-03
      2.18202658e-02 2.83235870e-02 1.82611048e-02 6.78079901e-03
      4.69255494e-03 1.03293434e-02 1.37468595e-02 9.40851215e-03
      9.09399893e-03 1.26440357e-02 1.05366362e-02 -5.73636265e-03
      4.70888987e-03 2.24217074e-03 2.87411152e-03 8.44378956e-03
      2.41220091e-03 7.38072488e-03 1.95807461e-02 1.61222722e-02
      4.80839722e-02 1.27301514e-02 6.73176907e-03 4.38496144e-03
      8.34354316e-04 9.01627820e-03 1.17836287e-02 2.05818657e-02
      2.28995811e-02 8.94441679e-02 3.18237171e-02 2.53270026e-02
      1.42391259e-02 6.37016119e-03 -1.97212137e-02 -2.56896988e-02
      7.76278600e-03 7.07113147e-02 5.76760806e-02 2.48803869e-02
      7.81346336e-02 5.15964143e-02 6.70519331e-03 -4.97214347e-02
      -5.64189404e-02 5.74910119e-02 5.27829751e-02 -1.31588215e-02
      -4.87156352e-03 6.45653531e-02 6.11379221e-02 2.03939918e-02
      -2.29581688e-02 -2.20323894e-02 3.94132696e-02 4.87540290e-02
      8.22989196e-02 2.29287473e-03 1.84600018e-02 1.05096865e-02
      -9.63107962e-03 -9.98348463e-03 4.86260513e-03 -3.14943073e-03
      1.01385508e-02 -8.01787525e-03 -2.63569690e-03 -1.09442621e-02
      -5.76565834e-03 -2.03616153e-02 -2.14486336e-03 1.95421968e-02
      3.73603180e-02 2.90894639e-02 5.93807437e-02 2.33441889e-02
      1.32431667e-02 3.88822146e-03 -1.28087848e-02 -1.00649260e-02
      9.18283593e-04 3.31931226e-02 6.45827502e-02 7.57438540e-02
      2.55660824e-02 2.74692029e-02 1.87663604e-02 -1.65987685e-02
      -6.78993911e-02 -7.77998194e-02 -9.63278639e-04 1.57388039e-02
      -2.57301927e-02 -1.03347040e-04 4.50475924e-02 2.88015641e-02
      -1.49005074e-02 -9.19883624e-02 -4.33426984e-02 3.67915630e-02
      1.54750515e-02 -9.55381095e-02 -1.60177071e-02 4.72715758e-02
      4.51012515e-02 -6.00396730e-02 -8.12236369e-02 -3.24981324e-02
      2.34708171e-02 5.86903393e-02 6.32673725e-02 -2.86579728e-02
      6.91056252e-02 4.11100797e-02 -7.49147013e-02 -1.91023126e-02
      -5.18799713e-03 -3.16465199e-02 -1.64936427e-02 -3.08816433e-02
      -3.49781811e-02 1.15340715e-02 -9.70241800e-03 -4.67474498e-02
      -3.86703834e-02 -3.36231111e-04 1.15622962e-02 4.03339788e-02
      6.90708831e-02 3.58980186e-02 2.73705423e-02 9.44853202e-03
      -3.18882093e-02 -3.03583536e-02 -6.63710088e-02 -1.06348852e-02
      9.45569649e-02 9.10179615e-02 2.96325218e-02 4.55986001e-02
      1.55779524e-02 -2.15743240e-02 -3.51349786e-02 -9.65946466e-02
      -5.50209619e-02 2.40338128e-03 -1.63378548e-02 -7.15104938e-02
      3.64446342e-02 5.20683564e-02 4.96627428e-02 -2.70207953e-02
      6.95473095e-03 6.35967255e-02 -1.09423837e-02 -1.63543463e-01
      -5.23749776e-02 2.42149793e-02 1.61011908e-02 -5.32165281e-02
      -8.15035179e-02 -5.50238937e-02 5.85876890e-02 3.60994413e-02
      -2.64924020e-02 -3.46586220e-02 5.11638969e-02 -2.96444278e-02
      -7.15807602e-02 1.26964098e-03 1.75198428e-02 3.56213935e-02
      -4.16124351e-02 -9.59842578e-02 -3.54148112e-02 -3.65622545e-04
      -2.63393950e-02 -4.47099470e-02 -3.63079309e-02 7.83690810e-03
      1.11068953e-02 2.83355694e-02 6.11264557e-02 4.41556349e-02
      2.49924529e-02 1.88671297e-03 -4.09392752e-02 3.19410525e-02
      -3.38667966e-02 -6.15163520e-02 6.12080516e-03 1.13861553e-01
      7.02356249e-02 4.49586138e-02 1.21991709e-02 2.58080754e-02
      2.28456873e-02 -1.24170825e-01 -9.06069577e-02 -9.75106191e-03
      -3.08988448e-02 2.07510218e-02 4.82056104e-02 5.08950241e-02
      1.02796942e-01 -4.88543101e-02 -1.21384673e-01 -1.83525868e-02
      -1.62661579e-02 -1.36540592e-01 8.21729249e-04 4.38563786e-02
      5.50172338e-03 1.44445673e-02 -3.71228158e-02 -1.03037864e-01
      -1.48255173e-02 2.18730476e-02 1.09766452e-02 -4.66809375e-03
      1.47133903e-03 9.03145317e-03 -6.86220301e-04 2.69319229e-02
      1.82628315e-02 2.21327320e-02 5.76358114e-04 -7.36666098e-03
      -4.00650389e-02 -6.37970790e-02 -2.02505998e-02 -8.51603225e-03
      -3.44145522e-02 1.06562600e-02 2.18810663e-02 1.60414297e-02
      2.63448637e-02 2.65473835e-02 1.89682338e-02 -2.19824398e-03
      -2.34073941e-02 4.67125475e-02 4.20462750e-02 -1.87967636e-03
      -1.74221694e-02 3.96549664e-02 2.19051652e-02 8.54865927e-03
      -8.38332251e-03 -2.48863641e-03 2.31557712e-02 1.80651471e-02
      -3.52080278e-02 -1.37762399e-02 2.57857349e-02 7.84830526e-02
      3.38002555e-02 3.49128768e-02 3.42229605e-02 2.10905075e-02
      3.10610067e-02 -1.14569608e-02 -3.74731198e-02 -1.01603322e-01
      4.38333377e-02 1.10932263e-02 1.74057074e-02 3.00727785e-02
      1.35749420e-02 1.43360291e-02 -6.93902001e-03 -7.18124444e-03
      -3.20185460e-02 3.52256885e-03 2.32735239e-02 1.41276671e-02
      8.04346800e-03 1.68756582e-02 1.99760478e-02 2.29944172e-03
      -6.16995106e-03 -7.00296648e-03 -2.64540454e-03 1.08048469e-02
      2.62493198e-03 9.27704759e-03 -9.32857674e-03 -1.76473462e-03
      1.39311599e-02 8.73527396e-03 1.31400982e-02 1.11050028e-02
      1.13476766e-02 1.59757724e-03 -3.68534215e-03 4.05326160e-03
      1.07067209e-02 1.92821249e-02 4.97106789e-03 1.38915768e-02
      3.06210085e-03 4.42271028e-03 1.24362661e-04 8.10795557e-03
      1.99056417e-03 1.07562281e-02 4.48803566e-02 1.92263350e-02
      -1.25186928e-02 1.60328243e-02 3.89777273e-02 2.68578380e-02
      1.95952058e-02 1.40873818e-02 2.62549594e-02 1.26335137e-02
      -1.95449474e-03 -4.64291349e-02 1.78078860e-02 3.51372757e-03
      1.06395548e-02 1.75409690e-02 1.26580549e-02 1.79048106e-02
      2.16561393e-03 5.13466960e-03 -1.30160451e-02 -5.05317701e-03
      1.20694721e-02 -4.08175547e-04 4.51146206e-03 8.62893555e-03
      7.34501285e-03 4.24968125e-03 -2.29448755e-03 -1.46382684e-02
      -4.79709524e-05 -2.68502720e-03 -6.68755602e-05 4.47240367e-04
      1.79555477e-03 9.28813126e-04 2.84962356e-03 6.60694158e-03
      3.01643251e-03 8.70910822e-04 1.42448815e-03 1.28373702e-03
      1.70806062e-03 5.14454907e-03 2.41428521e-03 7.92395975e-03
      9.73161217e-03 8.66971258e-03 1.89873052e-03 2.09338148e-03
      2.46484112e-03 6.49514794e-03 9.61773843e-03 2.98702717e-03
      9.61808208e-03 7.73084443e-03 2.48047337e-03 1.61433034e-03
      2.10096291e-03 2.43533612e-03 1.01436730e-02 7.66785443e-03
      1.27181492e-03 2.14596279e-03 2.81011162e-04 -2.17283261e-03
      1.84199214e-03 2.12679338e-03 3.76681518e-03 7.81404693e-03
      6.60941238e-03 3.05104256e-03 -5.48323169e-06 -1.40240220e-02
      2.01782933e-03 3.63004953e-03 2.50993646e-03 3.28513444e-03
      8.87509808e-03 4.05733706e-03 1.85836514e-03 2.48260912e-03
      -2.62337434e-03 -2.37764395e-03 2.33216342e-04 1.88929983e-03
      2.52605695e-03 6.09292416e-03 9.72085074e-03 -4.23318846e-03
      8.30908772e-03 2.77193524e-02 3.44791263e-03 3.34436633e-03
      4.04744223e-03 6.52212370e-03 1.04567781e-02 7.40612298e-03
      5.55495452e-03 3.09524201e-02 3.74091268e-02 2.98297126e-02
      1.08502312e-02 5.35879796e-03 7.52327126e-03 8.18183366e-03
      1.02303624e-02 1.59507431e-02 3.05197779e-02 3.32181640e-02
      -2.31295507e-02 1.31446393e-02 8.05325992e-03 7.51285907e-03
      1.01739867e-02 1.47772497e-02 8.24575964e-03 -7.70368031e-04
      -2.61072759e-02 -7.21525447e-03 9.53498669e-03 7.88981933e-03
      3.42328823e-03 1.44204618e-02 1.46367913e-02 1.01238126e-02
      -1.14143994e-02 -3.82457636e-02 1.45535534e-02 1.26303956e-02
      1.09984437e-02 9.68971476e-03 1.46956323e-02 6.16368931e-03
      2.87169777e-03 9.34062339e-03 -6.47022622e-03 7.98773952e-03
      3.35814827e-03 7.39803351e-03 6.65632123e-03 9.44242906e-03
      -2.26275995e-02 -2.77681872e-02 4.31383252e-02 4.45017219e-02
      1.72816981e-02 3.30678839e-03 2.53557842e-02 3.00641358e-02
      8.25961120e-03 -1.93817727e-02 -6.14226237e-03 5.24421930e-02
      6.77723140e-02 1.04307249e-01 7.57047161e-03 1.72754321e-02
      6.74498687e-03 -6.13759551e-03 -2.16067433e-02 1.94958188e-02
      9.75874159e-03 1.24180773e-02 2.06891708e-02 8.28570686e-03
      -1.20862620e-02 -1.24826869e-02 -4.94290777e-02 -3.30071673e-02
      5.51710837e-03 -5.04682648e-05 -5.17998859e-02 3.93724628e-02
      1.43784909e-02 8.48941505e-03 -4.28112373e-02 -2.99436059e-02
      -2.96932459e-03 1.24785220e-02 -1.63831413e-02 -2.07015090e-02
      5.11290506e-02 4.98299580e-03 -1.64732542e-02 -2.41559800e-02
      2.20099697e-03 1.47271259e-02 1.11554218e-02 8.74707382e-03
      -3.32462694e-03 4.42134105e-02 3.99817899e-03 -2.21024337e-03
      9.79381381e-04 5.88946370e-03 -3.20569351e-02 -1.12793371e-02
      4.56300117e-02 4.06871811e-02 -3.84003371e-02 3.73453368e-03
      3.83323804e-02 3.63534987e-02 -3.73499654e-02 -5.40050641e-02
      -8.99003539e-03 4.48723994e-02 7.22503737e-02 8.56026635e-02
      -1.73325222e-02 8.54660198e-02 5.16260266e-02 -5.94905913e-02
      -3.18300650e-02 5.54657658e-04 -2.34321319e-02 -1.54403700e-02
      1.21013327e-02 -5.30122221e-02 -1.06851337e-02 -2.00834014e-02
      -5.45285828e-02 -2.18445826e-02 7.28004985e-03 -8.59170221e-03
      -5.45663387e-02 7.31722936e-02 -6.13181386e-03 -4.84729595e-02
      -5.34486473e-02 -3.03874202e-02 1.82917668e-03 -3.29466374e-03
      4.82182205e-02 3.42675075e-02 1.35158068e-02 6.55062310e-03
      -7.16420785e-02 -3.61932218e-02 -1.63078271e-02 1.53104737e-02
      -1.60349836e-03 8.21318291e-03 1.90860741e-02 3.23352553e-02
      -1.54602330e-03 -2.89355367e-02 -1.50761325e-02 6.09601615e-03
      6.90108305e-03 2.21880525e-02 2.96784136e-02 7.04791024e-03
      -6.39162287e-02 -1.59137696e-03 4.08122353e-02 2.23159548e-02
      -7.22837262e-03 -2.96187643e-02 -2.66757160e-02 7.17149600e-02
      5.24917021e-02 2.23859889e-03 -2.12676283e-02 8.45371336e-02
      5.79509092e-03 -3.49732973e-02 4.34707478e-02 7.40446821e-02
      8.60382468e-02 -6.85379878e-02 -1.15005963e-01 -3.59855480e-02
      -3.32272649e-02 -2.41167415e-02 -2.51722522e-02 5.69807515e-02
      7.54687116e-02 8.43882710e-02 -7.77368387e-03 -6.12673983e-02
      -5.03852498e-03 -1.02745658e-02 -6.19167313e-02 -5.84828341e-03
      4.15000543e-02 2.77062301e-02 1.06359795e-01 3.28923529e-03
      -6.87449351e-02 -3.80713083e-02 -5.48061840e-02 -1.14734182e-02
      -6.50575897e-03 2.63729971e-02 9.46106669e-03 4.54301909e-02
      1.05428398e-02 -2.71813888e-02 4.36875457e-03 -1.28091676e-02
      -4.60357824e-03 1.81076005e-02 3.81302275e-03 -4.83322479e-02
      -2.12918455e-03 9.71771590e-03 -4.47153449e-02 1.47564625e-02
      4.44417559e-02 3.67789231e-02 3.90600450e-02 5.30520175e-03
      -7.77551457e-02 3.24406065e-02 4.29808348e-02 8.14597756e-02
      3.31465900e-02 3.16531882e-02 3.59909460e-02 3.28128040e-02
      8.21852908e-02 6.13786653e-02 5.52511141e-02 1.56858079e-02
      -2.43710298e-02 -3.01852357e-02 -2.47824062e-02 7.18664494e-04
      7.46975541e-02 1.09265763e-02 4.38506007e-02 7.46807083e-02
      -9.70663410e-03 -8.02847967e-02 -2.41705570e-02 5.96031023e-04
      -1.10357963e-01 -3.05711608e-02 5.08846045e-02 7.05247745e-02
      5.58313429e-02 -7.60489553e-02 -9.50873867e-02 -8.28790069e-02
      -1.10798225e-01 -5.44851050e-02 -9.25612450e-03 1.69874113e-02
      1.72121916e-02 3.55851240e-02 -5.33213234e-03 -6.20237254e-02
      2.32783589e-03 1.65080503e-02 -1.23356134e-02 -9.83344857e-03
      1.89200621e-02 2.21970361e-02 1.69703644e-02 -6.45333063e-03
      -2.70752832e-02 4.55305912e-02 1.53690744e-02 2.43822336e-02
      2.72361301e-02 2.00382266e-02 1.14462813e-02 1.69134606e-02
      2.59847399e-02 4.33996543e-02 2.98328344e-02 4.28957716e-02
      2.37078108e-02 1.43157626e-02 3.06141954e-02 4.17639762e-02
      2.66307052e-02 1.10913403e-02 -3.93409729e-02 1.00604473e-02
      4.84815687e-02 8.02000426e-03 2.18038522e-02 3.00585362e-03
      1.62084848e-02 2.19733268e-02 -2.46668905e-02 -2.52280366e-02
      1.57828964e-02 4.30550873e-02 -3.22404653e-02 -7.43126124e-03
      1.27499821e-02 2.18513142e-02 1.65006984e-02 -1.95829459e-02
      -8.01647678e-02 -4.70943525e-02 -4.32013907e-02 -3.55619416e-02
      -1.05029028e-02 9.23829793e-04 6.27208408e-03 9.42215044e-03
      -1.42644404e-03 -2.19128449e-02 -5.68068400e-03 -5.20106219e-03
      -1.61119960e-02 -1.40209952e-02 8.55908450e-03 1.02764107e-02
      1.19275628e-02 7.88506400e-03 -7.52162235e-03 1.72807276e-02
      2.36271461e-03 4.98852879e-03 1.20315831e-02 7.39822676e-03
      7.01448089e-03 7.25825876e-03 1.12742251e-02 1.34131825e-02
      1.02199884e-02 2.63167843e-02 2.81895557e-03 4.75505367e-03
      8.06201901e-03 6.04021270e-03 9.55824554e-03 1.54370617e-03
      -5.96457347e-03 7.06171291e-03 1.89790875e-03 5.30378614e-03
      3.40021960e-03 -1.33580517e-03 5.55016217e-04 2.43233703e-03
      -1.29382005e-02 -2.63132229e-02 1.29937828e-02 2.29500830e-02
      2.57899147e-03 -1.12274033e-03 -4.13725880e-04 1.66171393e-03
      5.25439205e-03 -1.48191722e-02 -4.59038429e-02 -2.90496135e-03
      6.83366042e-03 -1.11165445e-03 1.59451301e-04 2.75393762e-03
      2.19289097e-03 1.19004888e-03 -4.17436997e-04 -1.62981022e-02
      -4.27096384e-03 4.91876435e-03 5.97822480e-04 2.53575412e-03
      9.68467444e-04 -7.43346754e-05 -2.80104141e-04 -7.63796706e-05
      1.59856759e-03 8.76824139e-04 1.25019159e-03 1.46343154e-04
      4.69150400e-04 -4.10654070e-03 -3.65367089e-03 -3.12811113e-03
      -3.33125982e-03 6.52618892e-03 3.10478313e-03 1.22019602e-02
      9.25204717e-04 -1.20976637e-03 -1.50757600e-02 -5.74716460e-03
      1.06043379e-04 3.22356331e-03 7.78829213e-03 2.29107146e-03
      3.31509695e-03 -5.03728108e-04 -4.52646893e-03 -1.32899238e-02
      -4.58022021e-03 2.68383737e-04 7.80930044e-03 1.88899785e-02
      6.33387920e-03 3.63662886e-03 4.99112939e-04 -9.35774017e-03
      -5.38202422e-03 -7.64980819e-03 -1.36422773e-03 8.94435029e-03
      1.74822304e-02 6.01913687e-03 8.07233527e-03 3.71985137e-04
      -4.76488005e-03 -4.77675349e-03 -5.85279102e-03 8.89973890e-04
      5.92700299e-03 1.24297556e-04 -6.41294662e-03 2.08609179e-03
      2.15437729e-03 2.32018228e-03 -1.59686606e-03 -8.33030511e-03
      -9.15019680e-03 -1.51689094e-03 3.25270346e-03 -2.82247481e-03
      -3.20187048e-03 1.85492611e-03 -5.00082562e-04 -3.33822891e-02
      -1.90134943e-02 -2.66704522e-02 -1.91062242e-02 1.18526537e-02
      -2.42731418e-03 -1.24474205e-02 -8.88093654e-03 -3.01820170e-02
      -7.01534897e-02 -2.53185034e-02 -4.19792254e-04 1.17570981e-02
      3.15292552e-02 2.55101845e-02 5.08335941e-02 -2.20575687e-02
      -9.05533209e-02 -9.17140916e-02 -5.74649591e-03 3.53939505e-03
      1.94574483e-02 6.35033622e-02 4.62277159e-02 2.22499445e-02
      -1.75119825e-02 -9.51345786e-02 -2.95056328e-02 -3.11740711e-02
      -3.34040709e-02 -2.10663746e-03 9.59406942e-02 4.79274988e-02
      1.81350503e-02 -1.01482533e-02 -2.26680059e-02 6.72696158e-03
      -1.71153229e-02 -1.53081734e-02 -6.90871710e-03 2.06630840e-03
      -4.18504467e-03 4.61597228e-03 6.97975000e-03 1.49893584e-02
      -5.17604314e-03 -2.33706962e-02 -4.13223282e-02 -1.71838496e-02
      -2.64787069e-03 -1.36865871e-02 -1.31827183e-02 -3.94388521e-03
      -3.95602267e-03 -2.18467675e-02 -4.10006568e-02 -4.79983501e-02
      -2.12364141e-02 2.86707040e-02 -1.79803409e-02 -6.39702156e-02
      -5.12280650e-02 -5.51917739e-02 -8.93770382e-02 -7.27331266e-02
      -2.87871510e-02 4.24421839e-02 1.09428763e-01 2.08981168e-02
      4.36168797e-02 -3.20258513e-02 -1.62786633e-01 -1.95797533e-01
      -6.29477501e-02 -1.22991754e-02 2.84234006e-02 1.07308269e-01
      1.02020852e-01 6.79442734e-02 2.60651251e-03 -1.32957682e-01
      -7.29362294e-02 -2.04058867e-02 -4.86572692e-03 -3.14978547e-02
      1.05454527e-01 5.99724352e-02 3.27906981e-02 -2.33731419e-02
      -6.28161356e-02 -9.80996434e-03 1.13234809e-02 1.08308448e-02
      2.05520093e-02 -8.79563950e-03 -1.79703766e-03 6.21148990e-03
      6.44278200e-03 1.03185605e-03 -6.34183595e-03 -5.00255916e-03
      5.32789054e-05 1.85817466e-04 2.29164027e-02 -7.73576228e-03
      -5.69933876e-02 -4.62643057e-02 -2.03008894e-02 -5.27573153e-02
      -6.86846226e-02 -4.45389859e-02 5.44211268e-03 5.71977384e-02
      -9.01224324e-04 -4.98686917e-02 -8.24554339e-02 -9.14654285e-02
      -1.86315909e-01 -1.03314243e-01 2.27742381e-02 4.29922715e-02
      1.02279060e-01 2.91494764e-02 1.89568345e-02 -3.20303887e-02
      -1.36227623e-01 -1.84809536e-01 -1.49420306e-01 -1.15234023e-02
      6.03570230e-02 1.51794106e-01 9.80248079e-02 7.01889023e-02
      1.11768497e-02 -1.17653549e-01 -9.08555612e-02 -5.10071106e-02
      -3.36332954e-02 -3.60792093e-02 1.01780124e-01 1.79096535e-02
      1.58630926e-02 -8.52713478e-04 -6.28358275e-02 -2.99950764e-02
      1.92357320e-02 4.92839701e-02 6.90075308e-02 -2.48194556e-03
      -2.89148279e-03 3.16431299e-02 7.81207811e-03 -1.86241157e-02
      -3.06306221e-03 -4.16943505e-02 1.23092718e-02 1.54987932e-03
      4.13060561e-02 1.50886243e-02 -1.05267325e-02 3.05287121e-03
      -1.00910449e-02 -8.21407959e-02 -2.34118365e-02 3.85573767e-02
      6.22939914e-02 9.15650502e-02 1.72432736e-02 -5.39534539e-02
      -5.32672368e-02 -8.26190934e-02 -2.09018856e-01 -1.34242505e-01
      1.28358100e-02 5.11471257e-02 1.11451864e-01 2.98495330e-02
      4.80485428e-03 -3.40137742e-02 -9.70981643e-02 -1.71708867e-01
      -1.48963496e-01 -6.09349944e-02 5.33524565e-02 1.12149157e-01
      5.74108139e-02 5.32340743e-02 -1.60481110e-02 -1.26930162e-01
      -5.36245815e-02 -1.08937316e-01 -4.68330123e-02 1.19672036e-02
      1.43846452e-01 5.81674390e-02 3.43745202e-02 3.29234451e-02
      -1.70259066e-02 -3.19462158e-02 -1.78756025e-02 1.00782393e-02
      3.76733989e-02 2.99465135e-02 1.00194007e-01 6.13592006e-02
      6.96191713e-02 2.23454349e-02 -6.21211668e-03 2.68356130e-03
      -7.16953864e-03 -9.53191798e-03 3.13851573e-02 -6.15327968e-04
      -1.00600831e-02 -1.10307988e-03 -7.10529415e-03 -2.71662585e-02
      -2.11368352e-02 3.48113291e-02 3.04987449e-02 6.60140291e-02
      -1.01040052e-02 -3.12596112e-02 -3.71331861e-03 -1.61334760e-02
      -8.31427947e-02 -4.37411070e-02 -1.12616466e-02 -2.77421158e-02
      5.49957044e-02 9.88778565e-03 -7.76912970e-03 -2.09170580e-02
      -2.19244603e-02 -9.69406813e-02 -5.36121503e-02 -1.10215768e-02
      3.43973860e-02 1.32902533e-01 4.45147231e-02 3.50110568e-02
      -3.43248211e-02 -3.58932205e-02 -4.21268642e-02 -1.65139847e-02
      4.43491936e-02 6.89452663e-02 5.41328266e-02 4.43033903e-04
      -1.62319113e-02 -1.25305401e-02 -2.20701043e-02 -1.70493368e-02
      2.02328942e-04 4.24622670e-02 4.11149748e-02 -4.67631733e-03
      2.74888240e-02 3.71078774e-02 2.65806308e-03 -1.52637102e-02
      -1.75519986e-03 9.82246478e-04 1.94907212e-03 4.05923696e-03
      2.08997522e-02 1.96413486e-03 -5.15191583e-03 -7.35560991e-03
      -7.20797060e-03 -1.84138343e-02 -2.01627295e-02 9.52651538e-03
      4.80628712e-03 5.69988042e-02 1.88279878e-02 2.87172908e-04
      -1.64987356e-03 -7.19245896e-03 -2.69182231e-02 -1.93712488e-02
      -9.97008756e-03 -9.31581203e-03 3.05050053e-02 1.25762429e-02
      -2.49221940e-02 -1.24330465e-02 -2.33162325e-02 -5.13047427e-02
      -2.08206587e-02 3.70747806e-03 3.03255264e-02 7.17378706e-02
      3.49783413e-02 1.46368686e-02 -9.51473322e-03 -3.74591276e-02
      -5.11685610e-02 -2.48365360e-03 1.89290941e-02 2.95673553e-02
      7.97001719e-02 4.46882918e-02 1.11777745e-02 -9.58253350e-03
      -1.64891947e-02 -9.09052510e-03 8.36790353e-03 2.93090828e-02
      1.35636721e-02 -1.98084768e-02 5.30619472e-02 -8.03644396e-03
      -1.12295868e-02 -3.42454389e-02 -3.62896011e-04 3.23636807e-04
      2.79996009e-03 2.28839950e-03 6.27354486e-03 6.28933369e-04
      -2.91729957e-04 -6.12369855e-04 6.40195271e-04 -3.53806373e-03
      -1.22607464e-03 1.74083374e-03 3.00693279e-03 2.40387786e-02
      2.32094782e-03 -1.61553136e-04 -5.48720418e-04 -2.28287443e-03
      -5.28454641e-03 -3.01558641e-03 3.59388441e-03 9.59174428e-03
      1.16837649e-02 2.23329151e-03 1.15809124e-03 2.12612655e-03
      -3.57381720e-03 -7.60895526e-03 7.27109890e-03 1.40774511e-02
      9.28804185e-03 1.68772731e-02 8.22808594e-03 7.25084869e-03
      1.31839130e-03 -3.60556622e-03 -2.56662141e-03 6.77182572e-03
      1.16074178e-02 5.08043496e-03 6.54836278e-03 9.40605532e-03
      1.03673069e-02 5.69561962e-03 1.23041173e-04 3.51347518e-03
      2.51988252e-03 1.36819505e-03 2.64383783e-03 -8.32074974e-03
      1.09719168e-02 1.30524607e-02 4.71908366e-03 6.55522628e-04
      -3.49751883e-03 -9.19432961e-04 1.96443638e-04 3.57030611e-03
      5.97860338e-03 3.46079725e-03 3.16990144e-03 9.38216166e-04
      -2.68365396e-03 -2.74233357e-03 -6.32939953e-03 -2.24496471e-03
      4.97036101e-03 8.74416344e-03 3.84104066e-03 1.07097132e-02
      1.85299397e-03 -1.87243253e-03 -8.26311298e-03 -8.09360109e-03
      -8.18540866e-04 3.41170933e-03 -6.50659949e-03 -1.03762709e-02
      3.60543816e-03 2.84169707e-03 3.24421609e-03 -6.18476793e-03
      -3.22664157e-03 6.93903596e-04 -2.16607121e-03 -1.48425885e-02
      -4.89011779e-03 1.82255486e-03 7.56579568e-04 -9.03228240e-04
      -2.99853203e-03 -5.45227015e-03 3.42610106e-03 4.62103635e-03
      -7.93128554e-03 -3.93422041e-03 3.69590335e-03 -6.36440993e-04
      -1.25862740e-03 7.70224549e-04 5.19404304e-04 1.79142749e-03
      -3.63946590e-03 -9.10428260e-03 -2.79115397e-03 4.69043182e-04
      -3.90026922e-04 -4.36941045e-04 -3.00143082e-02 1.51997816e-03
      2.71377177e-03 9.15064197e-03 2.09073648e-02 2.23370269e-02
      1.12239877e-02 -4.33718925e-03 -2.91472599e-02 -1.05975885e-02
      -1.97119657e-02 -2.84354817e-02 1.36757828e-03 6.18100092e-02
      2.93156989e-02 1.93227604e-02 -5.83052915e-03 -9.51107685e-03
      3.54941632e-03 -2.92367898e-02 -2.64487527e-02 -1.78727845e-03
      -5.43969625e-04 -5.11148944e-03 5.63296769e-03 9.81681701e-03
      1.84280053e-02 -2.99114874e-03 -2.15623304e-02 -8.84932745e-03
      -1.39508964e-02 -6.97308183e-02 -1.34334108e-02 1.33738136e-02
      4.05935617e-03 5.44336624e-03 4.42556990e-03 -1.80637296e-02
      -5.12188161e-03 -2.32744939e-03 -2.01285798e-02 -2.26761447e-04
      2.46320548e-03 3.89550580e-03 1.45512330e-03 1.02543691e-02
      6.88021816e-03 -4.32266062e-03 -7.19472812e-03 -1.98876150e-02
      -1.31849041e-02 -3.18821915e-03 6.59880170e-04 2.49947957e-03
      -7.38244653e-02 -1.83988772e-02 1.28051145e-02 1.65413078e-02
      3.54679860e-02 5.54035828e-02 3.94664407e-02 3.81734734e-03
      -3.69611159e-02 -3.64153944e-02 2.33021844e-03 2.38417857e-03
      -1.71194300e-02 7.55389631e-02 2.36175582e-02 9.26108565e-03
      -1.19788572e-02 -3.03981043e-02 -1.95436571e-02 4.69027180e-03
      7.29133654e-03 3.62984017e-02 1.77241862e-02 1.01362625e-02
      2.20626756e-03 9.36825201e-03 -3.51033942e-03 2.31743492e-02
      5.10179549e-02 1.65450424e-02 -2.61853095e-02 -1.24996893e-01
      -1.28467623e-02 -4.14957330e-02 -1.19418688e-02 -2.94045010e-03
      -4.32980014e-03 -2.29432085e-03 -1.69845559e-02 -7.03716325e-03
      -5.77852391e-02 -3.72857898e-02 -6.35844888e-03 -1.11989453e-02
      -1.17913298e-02 6.68110140e-03 1.12946760e-02 -9.27338027e-04
      -1.91207230e-02 -5.53825311e-02 -7.68552162e-03 1.44623555e-02
      1.82545817e-04 -8.93952893e-05 -8.41320306e-02 -5.10067567e-02
      9.22131725e-03 3.44156288e-02 6.11052439e-02 5.65552339e-02
      6.52097687e-02 1.28737073e-02 -3.07447128e-02 -6.27494976e-02
      -1.46903386e-02 4.42487327e-03 -2.52181925e-02 1.01587541e-01
      1.74859408e-02 -9.26372595e-03 -2.45601851e-02 -4.94473577e-02
      -4.71397713e-02 2.07692832e-02 8.35594162e-03 6.09378964e-02
      -2.86119543e-02 1.59289800e-02 4.24699895e-02 9.19554848e-03
      -3.33052613e-02 3.29935215e-02 7.86004961e-02 5.88791370e-02
      4.26754951e-02 -9.30766687e-02 6.84435945e-03 -4.67079058e-02
      1.23169925e-03 1.10044172e-02 -3.88148986e-03 9.70474072e-03
      1.37766441e-02 2.36748178e-02 -4.36686948e-02 -8.68573040e-02
      -3.85276563e-02 -1.64146163e-02 -1.71822272e-02 4.45720647e-03
      6.88321074e-04 1.07905883e-02 -1.14912950e-02 -1.23249575e-01
      -3.57786678e-02 -4.77716662e-02 -1.57963298e-02 -8.65875836e-03
      -6.44060597e-02 -5.55096418e-02 -2.88222004e-02 2.95013152e-02
      6.78603277e-02 4.59884182e-02 3.54015902e-02 -3.83627205e-03
      -3.60444337e-02 -5.39900847e-02 -6.87438175e-02 -1.20585132e-02
      2.62794234e-02 8.85281786e-02 4.94442657e-02 3.99986394e-02
      3.30308490e-02 4.94137825e-03 -3.98015603e-02 -1.89921651e-02
      2.60661170e-02 4.41712625e-02 1.61888562e-02 1.01620667e-01
      8.32732469e-02 7.70520940e-02 2.92559136e-02 2.82117482e-02
      5.95472902e-02 6.88894987e-02 5.43653779e-03 -1.11668006e-01
      8.02237839e-02 1.01297967e-01 5.06900512e-02 2.65813842e-02
      -2.24519148e-02 2.45340317e-02 3.36411558e-02 -2.52600089e-02
      -4.06738669e-02 -5.64898252e-02 2.85663754e-02 5.86363003e-02
      8.77946988e-03 -1.28013808e-02 1.06485859e-02 1.24228857e-02
      -3.44140499e-05 -1.15553617e-01 -9.12524294e-03 4.07249760e-03
      2.60060579e-02 -3.66528123e-03 -2.20687706e-02 -1.45163964e-02
      4.79104090e-03 1.61950886e-02 5.58866635e-02 3.29714306e-02
      2.29586083e-02 -7.78827863e-03 -4.56770277e-03 -1.65355187e-02
      -7.95511180e-04 4.21484858e-02 6.26162440e-02 4.25696932e-02
      2.10842490e-02 2.22443417e-02 5.95909311e-03 -3.08346003e-04
      -2.63101025e-03 1.11780837e-02 5.87020740e-02 4.25943322e-02
      -1.73351020e-02 4.22349200e-02 4.87961695e-02 3.34509984e-02
      -3.53566138e-03 1.67593416e-02 3.35160792e-02 7.09379613e-02
      1.90222054e-03 -8.64908919e-02 6.64744526e-02 8.37664232e-02
      2.07423288e-02 -1.84733942e-02 -9.98797826e-03 9.92012909e-04
      3.75327691e-02 -2.18809638e-02 -8.02814588e-02 -3.02182771e-02
      4.32766937e-02 3.00525185e-02 -4.84099099e-03 -3.13016004e-03
      2.61396170e-03 9.69275739e-03 3.11433477e-03 -5.40162846e-02
      7.84921460e-03 2.16878392e-02 1.75851695e-02 -1.26300147e-03
      -1.33328773e-02 -3.65191000e-03 6.17246004e-03 1.60264466e-02
      3.28837857e-02 1.79561935e-02 8.88328813e-03 -1.49528391e-03
      -7.41232699e-03 -1.94570124e-02 8.78712907e-03 2.16999613e-02
      2.48848107e-02 5.76662570e-02 4.38961089e-02 1.14279706e-02
      -4.73815016e-03 -3.16499686e-03 9.20304749e-03 2.28531603e-02
      5.02079055e-02 2.29451824e-02 -3.29558812e-02 5.42469919e-02
      -2.78662872e-02 -4.22098627e-03 -2.86604539e-02 1.24202939e-02
      1.28804231e-02 1.55600943e-02 8.65361653e-03 -5.66808842e-02
      2.64267400e-02 -8.97979643e-03 7.19145813e-04 -2.91340221e-02
      -8.59513134e-03 -2.17433367e-02 1.69170406e-02 1.49698295e-02
      -1.54763171e-02 3.47495754e-03 1.83615498e-02 4.41856013e-04
      -1.82795785e-02 -7.31775071e-03 -1.58231743e-02 -7.78981019e-04
      1.24902679e-02 -1.60731934e-02 1.17460750e-05 6.56454125e-03
      -3.99273401e-03 -6.13172259e-03 -1.60169275e-03 4.82508494e-03
      7.13473419e-03 3.37051088e-03 7.80087244e-03 4.51664021e-03
      4.30092635e-03 8.98362196e-04 -7.57311645e-04 1.12062821e-03
      6.58139260e-03 9.85783990e-03 4.51573078e-03 5.36013069e-03
      8.48319847e-03 9.58809722e-03 5.04785404e-03 1.38669543e-03
      6.47325721e-03 4.61848592e-03 2.89582927e-03 5.11419540e-03
      -8.33124015e-03 1.64190419e-02 1.20275784e-02 5.97903598e-03
      2.78782123e-03 3.90790962e-03 4.54754476e-03 6.03961945e-03
      4.75686556e-03 -2.30585784e-02 3.57486797e-03 -1.34648206e-02
      1.61211437e-03 1.67357654e-03 1.84924959e-03 2.20187503e-04
      2.99262512e-03 1.17098528e-03 4.48251667e-04 1.00744581e-02
      7.44424202e-03 -2.08325963e-03 -4.08341829e-03 -4.54198977e-04
      -3.35413206e-04 2.40179850e-03 -1.89019716e-03 -2.28970940e-03
      3.66673106e-03 7.98319001e-03 3.03011108e-03 5.74613805e-04
      -2.88288994e-03 -1.92173827e-03 2.01202711e-04 1.40467123e-03
      -2.47842679e-03 -4.97065892e-04 4.05143574e-03 1.34127773e-03
      -8.94305587e-04 -3.25354002e-03 -5.45025896e-03 3.51576018e-03
      9.57667269e-03 -1.33440213e-03 -2.26561935e-03 6.79301377e-03
      2.71948171e-03 -8.60261149e-04 3.25056352e-03 1.95093954e-03
      3.62618873e-03 -7.10640568e-03 -1.50789972e-02 -2.11571413e-03
      1.49602152e-03 2.07226747e-03 3.97055782e-03 4.45125718e-03
      5.49320364e-03 5.78634255e-03 -4.13245242e-03 -1.17994845e-02
      -3.08203686e-04 6.00849045e-04 -8.95204721e-04 2.94573791e-03
      5.57438470e-03 2.94486643e-03 5.40708844e-03 -1.28765106e-02
      -1.00860670e-02 -5.67981787e-03 -2.95954524e-03 2.56860908e-03
      2.41835951e-03 3.36862425e-03 8.50034296e-04 2.52671842e-03
      -3.01913661e-03 -6.25069579e-03 -4.15791699e-04 7.77501045e-05
      1.26311556e-03 2.68136431e-03 -1.34961924e-03 -1.23393713e-02
      -3.40376934e-03 -7.78685440e-04 -1.56330038e-02 2.23027333e-03
      1.31714642e-02 5.67053771e-03 4.11314797e-03 6.70466013e-03
      -1.37313064e-02 -2.15849490e-03 1.06793148e-02 1.71241257e-02
      5.71914949e-03 -4.51843662e-04 6.96238643e-03 2.25139572e-03
      2.15273593e-02 1.44406753e-02 -1.91674642e-02 -3.92385386e-03
      -5.35474671e-03 -1.86433494e-02 -6.12943992e-03 1.35123171e-03
      1.31749902e-02 -5.87999681e-03 6.46078121e-03 2.68513542e-02
      -5.22696367e-03 -2.74233390e-02 -1.32936537e-02 1.01856878e-02
      -2.21490897e-02 1.01432460e-03 1.28398584e-02 1.79900937e-02
      9.26154107e-03 -3.39671522e-02 -3.84849086e-02 -3.55570614e-02
      -2.25917473e-02 -1.04498016e-02 2.83819903e-03 6.24787528e-03
      5.34696551e-03 6.35020202e-03 -1.27570694e-02 -2.89210156e-02
      -2.12077354e-03 4.09761909e-03 -2.17555440e-03 -1.78435072e-03
      1.63024515e-02 3.05153932e-02 -1.76051026e-03 -5.23568317e-03
      -4.13413607e-02 2.69397330e-02 -8.28432944e-03 9.26337088e-04
      6.17375458e-03 7.83479121e-03 1.06936786e-02 -4.86455252e-03
      9.63910250e-04 2.45695859e-02 -1.77184083e-02 5.21593902e-05
      -1.10088913e-02 -1.30359102e-02 1.49150752e-02 3.03043779e-02
      6.65949099e-03 5.12796221e-03 -6.82130009e-02 -2.57188873e-03
      4.73211855e-02 2.94079259e-03 2.42081517e-03 -1.94552056e-02
      1.09250154e-02 3.02916728e-02 -1.38085792e-02 -3.96118090e-02
      1.43182082e-02 6.11328296e-02 -2.05761176e-02 -1.52215501e-02
      9.27812885e-03 1.06551209e-02 9.65264905e-03 -5.37136272e-02
      -1.02835052e-01 -3.58590297e-02 -2.39179526e-02 -2.57467479e-02
      -2.41092090e-02 1.04788141e-02 1.19286310e-02 6.34727348e-03
      -3.16786245e-02 -4.15618457e-02 -1.93696916e-02 -6.80238521e-03
      -4.35490068e-03 1.50420459e-03 4.10903394e-02 5.59201166e-02
      4.10276726e-02 3.58956009e-02 -3.65181006e-02 3.22974138e-02
      -8.05635285e-03 1.11621264e-02 1.72803458e-02 2.79819742e-02
      3.54040898e-02 1.78418010e-02 3.72695699e-02 1.88507196e-02
      -4.42156717e-02 9.33071692e-03 8.06239154e-03 4.83029196e-03
      1.32675832e-02 6.40563108e-03 2.52003670e-02 1.10846888e-02
      -7.03113824e-02 -1.74705703e-02 -2.90294345e-02 -3.37400148e-03
      -8.14142823e-03 -2.72190683e-02 7.40041898e-04 1.61063448e-02
      -6.72103390e-02 -1.52726874e-01 3.81624396e-03 5.07591628e-02
      7.05257291e-03 -2.40854379e-02 -2.65097036e-03 7.42099155e-03
      2.68575195e-02 -8.05922821e-02 -2.17529118e-01 -4.14589942e-02
      4.21704128e-02 9.43324156e-03 -4.13444079e-03 2.90694069e-02
      8.20962247e-03 9.77635570e-03 -2.26574093e-02 -1.05509117e-01
      -2.89933868e-02 2.59580482e-02 5.79128973e-03 2.69682761e-02
      3.52973118e-02 4.49972004e-02 7.17282593e-02 4.05508354e-02
      -3.87739129e-02 6.47595078e-02 5.70987463e-02 2.75230780e-02
      2.62548085e-02 -3.17076780e-03 4.09047082e-02 4.46106829e-02
      1.68249775e-02 -1.58466934e-03 -1.84286479e-02 4.25842628e-02
      6.58891872e-02 2.31143888e-02 -6.01495523e-03 4.89521846e-02
      3.91945727e-02 3.04568913e-02 -2.24013142e-02 2.45033465e-02
      3.12401261e-02 6.06150180e-02 1.04506817e-02 8.12716491e-04
      5.79510443e-02 1.73355844e-02 -3.22934091e-02 -1.35262758e-01
      -1.00170514e-02 5.68588935e-02 4.64817546e-02 1.98688526e-02
      7.56733632e-03 4.32848372e-03 -9.59134847e-03 -1.09313659e-01
      -2.12696940e-01 -1.25572607e-02 3.71783450e-02 4.56233583e-02
      1.57832522e-02 1.27783529e-02 6.84616622e-04 5.32280141e-03
      7.45149911e-04 -3.52718309e-02 -4.14176583e-02 7.14098569e-03
      5.27321268e-03 5.37644839e-03 1.30641060e-02 3.15222256e-02
      5.95255084e-02 2.88081747e-02 1.42980563e-02 6.26057237e-02
      4.17654961e-02 9.13368631e-03 -3.60015407e-03 -9.42842383e-03
      8.58602952e-03 4.87625264e-02 1.57405380e-02 3.54129449e-03
      2.50809453e-03 4.73674051e-02 2.98832506e-02 1.16728293e-03
      -1.33953784e-02 8.59047100e-03 2.36203149e-02 1.96361318e-02
      -3.53640020e-02 4.49736863e-02 6.06151596e-02 4.65963818e-02
      -5.20720286e-03 -3.41690816e-02 -2.34225411e-02 -1.74020766e-03
      -6.75810501e-02 -2.47734264e-02 6.27477542e-02 5.66217229e-02
      3.35695222e-02 -6.38228655e-03 -2.08673626e-03 1.22288605e-02
      -1.39864525e-02 -2.34923437e-02 -4.13972475e-02 2.11519040e-02
      2.72506326e-02 9.02138557e-03 3.62159079e-03 4.79110191e-03
      -3.44110141e-03 -1.05695091e-02 4.20130193e-02 1.84253622e-02
      -5.64254522e-02 -8.45727511e-03 6.74205506e-03 1.96284684e-03
      6.93645515e-03 4.74084634e-03 1.47017986e-02 1.36871021e-02
      -8.37931223e-03 2.25085281e-02 2.01213360e-03 -3.18918348e-04
      -1.43969106e-02 -1.20116426e-02 -2.58935299e-02 2.17993166e-02
      2.77315285e-02 2.55863089e-02 1.80875547e-02 1.96248014e-02
      -5.07348159e-04 -1.48572605e-02 -1.88311618e-02 -3.22710723e-02
      -2.92550656e-03 3.45407650e-02 1.20807895e-02 1.29033169e-02
      2.44163070e-02 -8.14810209e-03 -1.55615760e-02 -1.93512533e-02
      -1.48020918e-02 -1.50792785e-02 1.01823583e-02 8.34125385e-04
      2.56553628e-02 1.92268733e-02 -1.50563065e-02 -1.57685559e-02
      -6.09630346e-03 -2.29226798e-03 -9.64821025e-04 2.48124227e-02
      1.37848789e-02 1.55781666e-02 1.35470256e-02 1.34814507e-03
      -2.52129254e-03 2.57634395e-03 -5.89266827e-04 -5.11650636e-04
      1.57914795e-02 2.98138391e-02 -1.24923699e-02 5.28518064e-03
      2.82056793e-03 1.98025745e-03 1.84728426e-03 2.39100726e-03
      3.95306479e-03 4.70750080e-03 -8.33928306e-03 3.06461472e-03
      -8.51487461e-03 4.03850514e-04 1.37392385e-03 1.14748406e-03
      5.51411416e-04 4.97741159e-03 4.54685371e-03 1.11070871e-02
      1.33515783e-02 7.70933600e-03 -1.71636615e-03 -3.05338507e-03
      3.65661195e-04 -7.12267502e-05 6.19376916e-03 4.89591854e-04
      7.04265339e-03 1.21121714e-02 1.27933286e-02 4.79601137e-03
      1.46811747e-03 3.13740480e-03 -3.14114802e-03 -3.49535048e-03
      1.23405119e-03 -4.27276624e-04 7.99052045e-03 7.14415172e-03
      5.30267658e-04 2.95607839e-03 3.22876615e-03 6.55142765e-04
      7.67305537e-05 3.56470910e-03 1.56115824e-02 1.80728137e-02
      5.44357114e-03 9.40768688e-04 1.80420047e-03 2.51701288e-03
      2.92508776e-04 -1.84665492e-03 2.67422199e-03 1.01741068e-02
      1.96105684e-03 1.15065055e-03 8.79438478e-04 1.99875794e-03
      -3.54907010e-03 -7.92073924e-03 -2.79916939e-03 -3.31100775e-03
      7.38776103e-03 1.07908493e-03 -3.74140730e-03 -2.91569601e-03
      -3.88866966e-03 -1.72656886e-02 -9.05328803e-03 1.54971401e-03
      5.53560536e-03 -2.27131275e-03 -3.05963075e-03 -3.33093107e-02
      -2.09015608e-02 -2.70900410e-02 -7.83676878e-02 -3.65511514e-02
      -1.03421547e-02 -4.07331157e-03 2.32759328e-03 -1.33303599e-03
      -1.15332156e-02 -1.59394350e-02 -4.65968810e-02 -6.20065629e-02
      -4.87076081e-02 -3.15811113e-02 3.01257521e-03 1.14293694e-02
      7.72625935e-05 -9.63897910e-03 -3.00640706e-02 -6.15398027e-02
      -4.56575155e-02 -2.37537902e-02 -7.86430109e-03 3.26807681e-03
      -2.27685310e-02 -2.32018549e-02 -7.85110344e-04 -8.49855784e-03
      -2.95798685e-02 -1.64390001e-02 -9.82652977e-03 -4.99415735e-04
      -2.05909228e-03 -5.31190522e-02 3.04597523e-03 -9.46264062e-03
      -4.86794300e-03 -1.00456802e-02 -2.19803583e-02 -3.25500034e-03
      -5.55415871e-03 -1.50997099e-03 3.11497357e-02 -3.05274036e-03
      -1.40049104e-02 -1.20544694e-02 -2.39019096e-02 -5.03642447e-02
      -5.41735590e-02 -4.27304814e-03 -3.25880968e-03 2.23942250e-02
      1.09974935e-03 -2.39456855e-02 -8.07672180e-03 -3.17069367e-02
      -1.00840874e-01 -5.86277507e-02 -4.17494550e-02 -4.14187610e-02
      -2.68114358e-03 -7.38703064e-04 -3.51641253e-02 -2.35065445e-02
      -4.22488600e-02 -1.04959093e-01 -5.99365607e-02 -3.46567221e-02
      3.34212068e-03 6.42873421e-02 1.85850542e-02 7.03271246e-03
      -3.33587155e-02 -4.84075584e-02 -5.93499392e-02 -2.62220632e-02
      1.16962800e-02 2.75205448e-02 3.21727544e-02 -7.97332898e-02
      -8.84154737e-02 -5.23304716e-02 -5.43803386e-02 -3.12579907e-02
      -1.14899371e-02 1.75039116e-02 6.68929191e-03 -7.71490708e-02
      -5.59149683e-02 -1.34911895e-01 -6.44097924e-02 -7.02487305e-02
      -1.92225687e-02 -3.40916729e-03 7.55967246e-03 1.30723435e-02
      6.00734204e-02 1.04379598e-02 -1.73180234e-02 -2.36993190e-02
      -2.61482969e-02 -7.55415410e-02 -8.86467323e-02 -3.19582820e-02
      -9.36485454e-03 1.05820484e-01 4.32976633e-02 -1.23096518e-02
      -1.32611990e-02 -3.63390595e-02 -9.34984237e-02 -1.02147907e-01
      -5.41769415e-02 -2.88651250e-02 4.09574844e-02 5.98516781e-03
      -3.68197486e-02 -4.29244228e-02 -9.74932462e-02 -1.16318911e-01
      -7.30693638e-02 -5.45643121e-02 3.64042297e-02 1.22685984e-01
      5.50328009e-02 1.81720350e-02 -3.20017412e-02 -7.91310892e-02
      -9.99329314e-02 -2.30771136e-02 1.17439637e-02 3.24442461e-02
      1.16683029e-01 7.64788538e-02 3.49984542e-02 -2.45267544e-02
      -5.62378615e-02 -1.95625629e-02 2.17537070e-03 2.43803747e-02
      8.30046274e-03 -2.38863267e-02 -4.80971206e-03 -1.16010793e-02
      -4.10586558e-02 -6.98166117e-02 -3.24249417e-02 -1.24306148e-02
      2.24658605e-02 3.36413346e-02 7.48684779e-02 1.09865302e-02
      -7.01020332e-03 -1.33597469e-02 -1.95933953e-02 -7.54163191e-02
      -6.27739877e-02 6.75492361e-03 2.51847133e-02 1.05259001e-01
      1.26674464e-02 -1.68409443e-03 -9.32880957e-03 -4.00090590e-02
      -6.41763732e-02 -4.95762751e-02 3.11869364e-02 6.25754371e-02
      4.99358438e-02 2.61340220e-03 6.67956518e-03 2.17941981e-02
      -2.31767707e-02 -7.53574595e-02 3.37980054e-02 4.66180034e-02
      3.57335173e-02 7.48174116e-02 4.23489884e-02 1.71029791e-02
      -4.47949348e-03 -4.69697714e-02 -3.11075374e-02 4.03224900e-02
      4.28148285e-02 4.95908409e-03 1.31598196e-03 1.69646237e-02
      4.88363393e-02 1.80046465e-02 -2.31211670e-02 2.43205614e-02
      -1.20008609e-03 -6.59201248e-03 1.32382838e-02 -3.50606069e-02
      -4.82126884e-02 3.91687527e-02 2.95464993e-02 8.76634289e-03
      -2.48089992e-02 -7.21014151e-03 1.68456938e-02 5.33256792e-02
      1.08632073e-01 1.45778237e-02 -2.05195192e-02 9.55611351e-04
      -2.04778500e-02 -4.00311537e-02 -2.58651804e-02 2.91249622e-02
      7.03034028e-02 1.20572776e-01 5.65295480e-02 1.80488091e-03
      3.51275725e-04 -6.46284670e-02 -2.78766323e-02 6.44754898e-03
      5.37678339e-02 6.57329857e-02 5.75585850e-02 -1.27317542e-02
      -2.16146987e-02 -2.07853690e-02 -1.66090056e-02 -3.62529121e-02
      -3.87281901e-03 4.37239558e-03 -1.11456467e-02 7.14842528e-02
      3.83669175e-02 2.51653884e-02 -2.40022540e-02 -1.85695812e-02
      -3.60122807e-02 -1.45947933e-02 8.54147878e-03 -1.13908742e-02
      1.02843363e-02 4.08311039e-02 2.49766391e-02 1.67894419e-02
      5.83949266e-03 -1.14971669e-02 -2.89833695e-02 -2.42682192e-02
      8.77012126e-03 -3.06775998e-02 -3.79555626e-03 -2.55358554e-02
      -8.88881925e-03 -1.32736946e-02 -3.43471505e-02 -4.80144564e-03
      1.27163399e-02 2.35724449e-02 1.05735213e-01 1.76393744e-02
      -4.68400167e-03 -8.68383504e-04 -2.54881233e-02 -5.35638072e-02
      -4.21466213e-03 1.86455175e-02 7.48359337e-02 1.05430476e-01
      2.79265698e-02 -4.04974539e-03 1.26051381e-02 -3.82361338e-02
      -1.64145548e-02 -1.55117614e-02 4.03166795e-03 1.15975462e-01
      9.74006578e-02 -4.18353779e-03 -1.39195588e-03 -3.30040092e-03
      -3.02292611e-02 -4.78293002e-02 -1.81218628e-02 -2.37729680e-02
      1.46454414e-02 6.05863184e-02 1.09675517e-02 1.16384579e-02
      -2.08784752e-02 -5.98059148e-02 -4.66420427e-02 -2.71016322e-02
      -1.19893588e-02 1.13997702e-02 1.23915095e-02 3.07639316e-02
      1.20828394e-02 2.66532619e-02 -7.29733892e-03 -1.02789383e-02
      -1.15136653e-02 -1.46156615e-02 -5.70605695e-03 8.95056175e-04
      1.19615113e-02 -3.77813587e-03 8.19515064e-03 -2.63224146e-03
      -1.51205324e-02 -1.06063262e-02 3.16089671e-03 1.05211921e-02
      6.43345341e-02 8.72547459e-03 -1.30045391e-03 -3.85715452e-04
      -7.89253321e-03 -2.56759990e-02 -1.29146278e-02 1.23337200e-02
      2.88689155e-02 1.00182615e-01 1.32996840e-02 -8.71156435e-03
      -1.37649034e-03 -1.03883920e-02 -3.45946290e-02 -1.91842299e-02
      3.93023668e-03 3.76210660e-02 8.83629918e-02 1.41655076e-02
      -1.71010494e-02 -4.07747738e-03 -2.58715264e-02 -3.04114558e-02
      -2.64992937e-02 -7.24196248e-03 1.06593110e-02 3.61029170e-02
      1.38581973e-02 -9.34605580e-03 -1.18971588e-02 -2.60346383e-02
      -3.87801602e-02 -2.82137785e-02 -9.19811800e-03 1.10853389e-02
      9.74679645e-03 1.13435509e-02 -1.77850958e-03 -4.11046296e-03
      -8.64273496e-03 -1.30394502e-02 -1.41113857e-02 -9.80522484e-03
      -8.11450474e-04 -1.37325255e-02 1.93890538e-02 -5.15582319e-03
      -1.83520594e-03 -7.37758493e-03 -3.09641799e-03 -3.74509837e-03
      5.02561976e-04 5.45922294e-03 1.68681648e-02 4.99808113e-04
      -4.33696929e-04 -1.63552654e-03 -9.40883823e-04 -8.79008882e-03
      -4.99291159e-03 1.19407261e-04 1.11642778e-02 3.49466130e-02
      3.99188045e-03 -7.09669373e-04 -3.09085986e-03 -3.82981519e-03
      -9.40990262e-03 -1.28164236e-02 -3.58232879e-03 7.68115092e-03
      2.81167924e-02 2.46045226e-03 -2.62890570e-03 -2.59345688e-04
      -4.48533753e-03 -4.72326251e-03 -9.77577083e-03 -1.00351684e-02
      -5.11507224e-03 -5.29841636e-04 3.75762535e-03 -1.65942044e-03
      -3.05544818e-03 -4.12800768e-03 -4.10099002e-03 -4.02461784e-03
      -4.45924234e-03 -3.50839226e-04 4.14061174e-03 6.39717211e-04
      -2.94473022e-03 6.44176675e-04 -3.32011539e-03 -3.11467983e-03
      -1.83913304e-04 -8.20079440e-05 1.56667712e-03 -3.22190090e-03
      2.13012123e-03 -3.90187884e-03 -1.88012561e-03 -3.59799247e-03
      -9.64761898e-03 -8.96662287e-03 -4.38107783e-03 2.91538658e-03
      5.97552722e-03 3.91424587e-03 5.21343434e-03 -8.56772822e-04
      -5.28776180e-03 -5.46561275e-03 -5.59628801e-03 1.86841725e-03
      8.37987754e-03 -6.17585203e-04 3.77621991e-03 3.17588216e-03
      -4.91515617e-04 -6.68995955e-04 -6.57665404e-03 -9.19812126e-04
      1.72342698e-03 3.36350058e-04 -2.11612955e-02 1.99110173e-02
      9.70606506e-03 1.33677367e-02 1.76193845e-03 -7.98691995e-03
      3.41837131e-03 8.29133857e-03 -8.53569154e-03 -4.19663936e-02
      2.43087672e-02 2.24476866e-02 1.05703613e-02 -8.65148753e-03
      -1.47723258e-02 -3.39624035e-04 5.66384336e-03 -1.07622510e-02
      -2.82404777e-02 -7.43492227e-03 1.56406069e-03 6.71203481e-03
      -1.06793400e-02 -1.30811092e-02 3.26031377e-03 4.98160115e-03
      -5.33229625e-03 -2.52091307e-02 -1.42577821e-02 -1.71102360e-02
      -2.66225240e-03 -7.32349278e-03 -2.11147349e-02 -1.56145087e-02
      3.66663560e-04 8.45045596e-03 2.59625241e-02 1.61786918e-02
      1.01391301e-02 -4.51813359e-03 -5.87402424e-03 -1.46288183e-02
      -2.97073019e-03 2.56632641e-02 3.26557569e-02 3.35312076e-02
      -7.96597544e-03 -2.50901803e-02 -1.91681180e-02 -1.20038223e-02
      -1.76856052e-02 -4.55489708e-03 4.00063582e-02 1.67085044e-02
      -2.96443012e-02 1.18709542e-02 -2.23157369e-02 -2.42063552e-02
      -4.69748899e-02 -7.91468751e-03 -3.09723709e-03 3.21907364e-02
      -2.07878929e-02 -5.92811294e-02 4.44981307e-02 4.81405966e-02
      -4.54912754e-03 -7.78681338e-02 -1.62779279e-02 -1.65966097e-02
      1.31893773e-02 -2.12741978e-02 -5.90076409e-02 -2.15478111e-02
      4.01364937e-02 3.09631173e-02 -4.72626835e-02 -1.28705921e-02
      3.29079665e-03 1.67431384e-02 3.24636255e-03 -4.73751090e-02
      -1.57857034e-02 -4.29207738e-03 -6.66218717e-03 -1.32527426e-02
      -3.90606709e-02 -1.71786100e-02 6.93542371e-03 4.56670560e-02
      6.08582757e-02 3.29231173e-02 2.09010746e-02 -2.71903165e-03
      -2.07697265e-02 -5.32001480e-02 3.13751884e-02 6.95356056e-02
      6.22783750e-02 8.68457556e-02 8.22670013e-02 4.36880291e-02
      -2.63423612e-03 -9.29854531e-03 -7.62256188e-03 5.07927351e-02
      7.72680044e-02 5.71961142e-02 -1.67832859e-02 8.44941586e-02
      1.64315403e-02 -2.26703249e-02 -7.28129596e-02 9.05394263e-05
      3.49913090e-02 4.79805730e-02 3.84735465e-02 -1.13294058e-01
      3.83421928e-02 -7.06772879e-02 4.15237434e-03 -3.78836393e-02
      -3.74079384e-02 -6.44748509e-02 4.00920361e-02 2.90323813e-02
      -5.59010766e-02 -9.53517956e-05 -3.97670054e-04 -2.76826490e-02
      -9.34359878e-02 -3.16234902e-02 -5.13315275e-02 -4.57211770e-03
      1.24022206e-02 -4.79014628e-02 -7.93034863e-03 2.34077816e-04
      -1.88347343e-02 -2.78055612e-02 -1.62820127e-02 6.42346367e-02
      6.76849112e-02 2.44507231e-02 6.05994761e-02 2.31937990e-02
      2.63928901e-02 3.47522344e-03 -1.21452808e-02 -5.34833316e-03
      5.67043163e-02 7.78592005e-02 2.92938873e-02 2.68343911e-02
      5.41446768e-02 5.10700457e-02 3.72079909e-02 -1.16671855e-03
      3.39758806e-02 7.70854531e-03 1.41660459e-02 5.33697903e-02
      -3.37627865e-02 3.86983529e-02 4.83909920e-02 2.84117479e-02
      7.71347294e-03 2.16718204e-02 1.52983544e-02 4.34245132e-02
      6.77241832e-02 -7.18910769e-02 -9.41494573e-03 -3.02348044e-02
      -2.38543302e-02 2.76898034e-02 1.59755815e-02 -3.79876536e-03
      5.46224341e-02 3.53849754e-02 3.69208795e-03 3.39122750e-02
      -5.24174273e-02 -5.07342666e-02 -3.04365568e-02 -1.55322691e-02
      -8.97836871e-03 3.06831058e-02 7.13501172e-03 -1.69429909e-02
      1.94297619e-02 1.06155081e-02 1.64398942e-02 -5.21887559e-03
      1.41019374e-03 2.36219484e-02 1.53701073e-02 1.56358932e-03
      5.35744429e-02 2.24055499e-02 1.94301419e-02 -5.16820437e-05
      2.01028446e-03 3.53242876e-03 1.71172060e-03 1.52139161e-02
      -1.04359456e-03 3.11498325e-02 5.19812480e-02 3.24989744e-02
      3.33736911e-02 2.37599909e-02 -2.10776669e-03 -8.35456885e-03
      -2.09132526e-02 3.40731889e-02 -2.30302904e-02 6.30363971e-02
      1.79473739e-02 1.99435186e-02 -4.09441348e-03 -8.64442512e-02
      -4.80623636e-03 1.82437636e-02 1.48883313e-02 -5.09608723e-02
      5.29407710e-02 4.10911860e-03 -8.27539712e-03 -1.80290658e-02
      1.03627527e-02 -1.80053501e-03 2.94953603e-02 7.33090006e-03
      8.44148174e-03 -1.02845632e-01 -1.21548504e-01 -8.70774966e-03
      1.32931732e-02 -5.88386646e-03 -2.70991144e-03 1.33186411e-02
      1.89179461e-02 -3.05885188e-02 -3.57327461e-02 -6.89000636e-02
      -7.74895120e-03 1.15788477e-02 -1.22375274e-02 3.07478971e-04
      -2.10649264e-03 5.19616529e-03 2.41886675e-02 1.12248948e-02
      8.36513285e-03 3.04734963e-03 -1.23440949e-02 -5.45865856e-03
      2.43749656e-03 5.51339588e-04 1.12361433e-02 1.77903492e-02
      2.66593136e-02 1.61395706e-02 3.48455049e-02 9.93270520e-03
      2.47830083e-03 7.31075695e-03 -3.75051401e-03 2.26730071e-02
      -2.29222327e-03 5.09699024e-02 1.80573072e-02 2.48625819e-02
      1.42102791e-02 -1.51704380e-03 7.85856228e-03 1.23400455e-02
      1.17578926e-02 -3.27367485e-02 7.87937194e-02 4.04511616e-02
      1.81813911e-02 2.44037919e-02 -3.95653863e-03 4.63796267e-03
      3.54515351e-02 1.12270210e-02 4.68189530e-02 2.40869801e-02
      -4.56960686e-02 -1.60349309e-02 9.11407406e-05 -2.02696230e-02
      2.70560454e-03 1.69118717e-02 1.10457903e-02 3.72510627e-02
      -1.36955073e-02 -9.20671225e-02 1.48629758e-03 -7.53688999e-03
      3.29696632e-04 -7.10533292e-04 -8.18019442e-04 4.48083924e-03
      1.15252156e-02 8.07819888e-03 1.63011777e-04 2.13350533e-04
      -2.38792412e-03 -3.08833714e-03 -2.29549641e-03 -2.77181127e-04
      1.30905593e-02 1.45246191e-02 1.47354202e-02 2.29714136e-03
      -9.02911241e-04 3.93415615e-03 -1.31895253e-03 3.94800724e-03
      3.23759555e-03 2.04764102e-02 -1.23489173e-02 3.86194773e-02
      -6.61448902e-03 2.64263293e-03 7.20524171e-04 2.55218521e-03
      -1.72709206e-05 -7.78335612e-04 1.53434835e-02 -6.58557937e-02
      3.45086940e-02 1.26125570e-02 9.33476444e-03 9.67681501e-03
      4.26243339e-03 -4.61856616e-05 -1.12131296e-03 6.48918375e-03
      1.73459165e-02 3.92919444e-02 2.44972855e-02 1.09325694e-02
      2.98521336e-04 8.53762403e-03 8.00993014e-03 5.63660683e-03
      3.36119265e-04 -5.69102960e-03 -5.15656546e-03 -2.81072333e-02
      9.37579898e-04 5.12107555e-03 7.70009763e-04 -9.07718088e-04
      -2.10252311e-03 -5.79662970e-04 6.99434488e-04 1.96088734e-03
      3.92045768e-04 5.10453770e-04 4.78216767e-04 1.74008880e-03
      1.52055139e-03 -6.58337376e-04 1.26161170e-03 6.45618467e-03
      3.08714993e-03 7.86670207e-05 1.37941050e-03 6.91808003e-04
      -1.26591243e-04 5.37817087e-03 4.45076823e-03 6.17579883e-03
      -3.50557268e-03 6.42939797e-03 -5.78781636e-03 -1.28611678e-03
      -2.57087173e-03 -9.22599109e-04 5.30816661e-03 6.84800697e-03
      9.20423213e-03 -2.26586238e-02 4.48875781e-03 -1.91721396e-04
      6.99734665e-04 -1.86903100e-03 7.04696926e-04 1.15668855e-03
      8.85714660e-04 5.14522893e-03 7.69276731e-03 8.98172427e-03
      4.60176775e-03 2.04095221e-03 -1.77400408e-03 -6.69349276e-04
      1.69938244e-03 3.01409257e-03 6.98193558e-04 -3.21351504e-03
      1.18050002e-03 -9.96999210e-04 6.98439078e-04 3.01076827e-04
      1.55461614e-03 3.37312953e-03 7.60206580e-03 6.68190187e-04
      -9.77158826e-03 1.17105097e-02 9.50020179e-03 4.18747216e-03
      1.07517501e-03 -4.44130413e-03 3.32283997e-03 1.01259425e-02
      -1.90564105e-03 -6.35244837e-03 -4.19157697e-03 7.60869868e-03
      8.45645368e-03 6.03340683e-04 -1.90730952e-03 1.07240407e-02
      1.40475649e-02 2.86098482e-04 -2.38169190e-02 -4.28808201e-03
      -1.04422215e-03 7.31555233e-03 9.15053533e-05 -1.01936632e-03
      8.89576413e-03 -2.22641625e-03 -3.70344967e-02 -5.45139774e-04
      -3.18701495e-03 -4.32902307e-04 3.77802667e-03 1.20789115e-03
      -3.32535943e-03 -2.41726660e-03 -7.96277169e-03 -1.36344284e-02
      -2.74088699e-02 -1.65251829e-02 -1.25042610e-02 3.71193234e-03
      1.18930032e-03 1.72556509e-04 -1.49477553e-03 -1.76225160e-03
      4.32366331e-04 -2.89955572e-03 -2.35167481e-02 -6.89015677e-03
      3.35732126e-04 -9.89144668e-04 9.22558422e-04 4.58919723e-03
      2.28485055e-02 6.24430040e-03 -8.17438960e-03 3.28674838e-02
      2.68598776e-02 -1.12981796e-02 -3.81469913e-02 -1.36097185e-02
      -1.62769482e-02 2.23115291e-02 1.51732303e-02 -1.21893696e-02
      9.25846922e-04 3.56037579e-02 2.13908162e-02 -3.57632935e-02
      -3.71344946e-02 -2.94925622e-03 1.59720108e-02 1.92585457e-02
      -3.89208682e-02 7.76683819e-03 2.89165583e-02 1.02754682e-02
      -2.32701022e-02 -3.22033763e-02 -3.36500444e-02 -1.45769781e-02
      -5.18069379e-02 -3.23060714e-02 1.15852999e-02 7.67173199e-03
      -2.29744683e-03 -1.39257777e-02 -8.64619110e-03 8.72092415e-03
      -1.08791981e-03 -1.82690769e-02 7.38654239e-03 -2.64146626e-02
      -3.87208536e-03 2.18738825e-03 -5.22272009e-03 -4.24584048e-03
      -4.88145137e-03 -1.56883541e-02 1.51017234e-02 -4.01417864e-03
      -8.03143010e-02 -1.48135787e-02 2.80117313e-03 -5.64726116e-03
      -2.96955812e-03 4.73284796e-02 3.62180248e-02 3.53579856e-02
      -3.16170156e-02 5.36727123e-02 -1.50580853e-02 -8.22182652e-03
      -6.53998926e-02 -3.07977572e-02 -7.65098408e-02 6.34984896e-02
      5.95039502e-02 7.00485148e-03 4.72954661e-02 2.92146839e-02
      -2.37306003e-02 -8.39323476e-02 -3.18837017e-02 -7.44135603e-02
      1.71258990e-02 4.97676954e-02 1.57679785e-02 2.45845672e-02
      1.83931459e-02 -2.95088328e-02 -4.33414020e-02 -3.76790985e-02
      -3.64088938e-02 -4.10803407e-02 -3.09240166e-03 -1.99932158e-02
      1.00541925e-02 -1.01865092e-02 -3.39192152e-02 -3.66936363e-02
      -1.90587956e-02 4.33538714e-03 9.16146394e-03 3.45915258e-02
      2.42719259e-02 8.56180396e-03 -1.26332045e-02 1.46295119e-04
      -9.91527364e-03 -2.56713992e-03 -3.74228484e-03 -4.01542475e-03
      1.70138422e-02 5.61756222e-03 -8.31006542e-02 -1.01820445e-02
      6.12847367e-03 -4.76802979e-03 1.81951504e-02 1.29245659e-02
      2.91756839e-02 4.18982096e-02 -1.27184149e-02 9.40592680e-03
      -5.86010553e-02 5.09030558e-03 2.98933629e-02 3.97404544e-02
      1.03390040e-02 7.31149092e-02 4.60748598e-02 7.59871900e-02
      6.07090518e-02 -1.31589873e-02 -1.91480108e-02 -1.36477011e-03
      2.04508416e-02 1.14731742e-02 6.31641746e-02 1.98638216e-02
      1.36501612e-02 6.72501102e-02 4.64784056e-02 1.94905084e-02
      1.51109109e-02 1.44425752e-02 -2.35707983e-02 3.41497967e-03
      4.29386608e-02 2.03451924e-02 8.23884364e-03 2.58955266e-03
      -1.44311050e-02 2.45306212e-02 4.53965701e-02 4.96911025e-03
      -1.02006076e-02 9.55845974e-03 8.83634165e-02 9.84145701e-02
      -1.44376829e-02 1.15217420e-03 3.20631228e-02 2.12865416e-02
      -4.97204717e-03 -3.75868566e-02 1.44417230e-02 1.14119537e-02
      -4.91212569e-02 -3.64191756e-02 5.77231916e-03 2.10499559e-02
      -1.98174473e-02 1.54261629e-03 1.78903677e-02 1.70649923e-02
      -7.02591613e-03 4.93774563e-02 1.60613805e-02 1.48755163e-02
      1.37535566e-02 2.86661889e-02 7.49741448e-03 3.37901600e-02
      1.07775982e-02 1.04088336e-01 -9.81410444e-02 -9.87406895e-02
      7.23949587e-03 3.01381834e-02 2.32380698e-03 4.54254635e-03
      2.44885702e-02 5.24002947e-02 -2.22632159e-02 -3.19187306e-02
      -6.88472092e-02 3.15458626e-02 3.40345539e-02 1.48248058e-02
      3.34597845e-03 -2.35274900e-02 5.56079447e-02 -1.94123741e-02
      -3.76048288e-03 1.22647341e-02 -1.52300426e-03 1.89989004e-02
      3.20500880e-02 -2.86895491e-04 -2.26210654e-02 1.89576913e-02
      -3.59068960e-02 6.67414144e-02 7.66367316e-02 1.97738223e-02
      3.05164680e-02 1.89033244e-02 6.21378946e-04 -2.00904813e-02
      3.05695329e-02 -3.17228697e-02 -4.46413178e-03 -1.29126329e-02
      9.84858070e-03 1.66384261e-02 7.95808341e-03 6.96436595e-03
      9.43173189e-03 8.74565262e-03 -1.55413467e-02 6.88202232e-02
      3.60254049e-02 1.20929629e-02 1.77721307e-02 2.52213073e-03
      1.26704620e-02 3.56372222e-02 1.59511510e-02 7.95836896e-02
      3.13017853e-02 -5.92782721e-02 -7.52576999e-03 3.61608481e-03
      -1.57536678e-02 1.34005835e-02 2.55798250e-02 2.82133836e-02
      4.51851450e-02 -2.55663041e-02 -8.57343823e-02 2.62042005e-02
      2.85008713e-03 2.55905907e-03 2.02663764e-02 2.43803626e-03
      2.16387697e-02 -4.14403267e-02 -2.55017914e-02 7.64134759e-03
      2.85656694e-02 3.11400159e-03 4.36824337e-02 1.61353778e-02
      9.68244113e-03 1.04052788e-02 -7.96917528e-02 -1.65621862e-02
      4.23112623e-02 2.74053905e-02 4.10552956e-02 3.95354629e-02
      1.88210960e-02 1.17454231e-02 2.15188377e-02 -1.61130261e-02
      -1.71773545e-02 1.12470053e-02 2.16653291e-02 2.66559608e-02
      3.35383252e-03 2.06826371e-03 3.52087640e-03 9.18932445e-03
      -2.38241046e-03 3.22691873e-02 1.30775375e-02 4.34281584e-03
      6.02033874e-03 1.03978878e-02 4.28172341e-03 4.74011758e-03
      1.06505202e-02 3.41252461e-02 4.78643812e-02 2.65422631e-02
      7.43979262e-03 2.33656913e-03 2.40036193e-02 1.90095566e-02
      1.50933396e-02 3.83296330e-03 4.09913110e-03 -6.56290073e-03
      -7.17303529e-02 4.68980381e-03 1.20203989e-02 2.98807099e-02
      1.36412494e-02 1.38408504e-02 1.25939706e-02 -4.89958599e-02
      -1.62665062e-02 -8.32043588e-02 6.15845993e-03 1.91727243e-02
      2.61619817e-02 5.90135902e-03 9.52610094e-03 3.24111851e-03
      -2.53397115e-02 -1.50915729e-02 9.48794745e-03 6.47171773e-03
      2.71267164e-02 1.48530342e-02 8.21461063e-03 3.68435355e-03
      5.42411581e-03 -1.87347736e-02 -1.68812592e-02 1.40756625e-03
      5.61127858e-03 1.02194203e-02 4.29204403e-04 2.27502664e-03
      2.75905826e-03 4.26432071e-03 9.23371234e-04 7.53247645e-03
      1.84433325e-03 5.17935434e-04 -2.08930534e-04 2.05498538e-03
      1.84022018e-03 2.36666109e-03 4.83269105e-03 1.45792542e-02
      1.38373347e-02 7.07247574e-03 1.98371569e-03 -2.06812547e-04
      1.61780172e-03 4.94293123e-03 6.73214579e-03 2.53508077e-03
      1.38644536e-03 5.58110513e-03 5.52816666e-04 1.87701744e-03
      2.38123210e-03 1.98159553e-03 2.83807097e-03 2.80088303e-03
      1.01132691e-03 -1.22820688e-02 -1.65087148e-03 -3.15704569e-02
      2.79890071e-03 3.10184597e-03 1.60890038e-03 1.66803971e-03
      1.94086728e-03 1.41449145e-03 -7.32401619e-03 -3.71127366e-03
      -1.29432622e-02 2.92945281e-03 2.24971212e-03 2.02146103e-03
      1.33506104e-03 7.29328895e-04 8.78766819e-04 -7.35968910e-03
      -5.58884954e-03 6.13137439e-04 2.69985292e-03 1.59930694e-03</_>
    <_>
      8.65080743e-04 2.51771882e-04 4.06348408e-04 -2.49786448e-04
      -1.82416616e-03 -3.43612541e-04 -7.76594316e-05 4.02659702e-04
      1.30783999e-03 -8.24450923e-04 -1.99082235e-04 -1.11941691e-03
      -8.48588883e-04 -9.62805527e-04 1.05540059e-03 -8.51941411e-04
      -3.42302199e-04 9.10235744e-04 -4.56956821e-03 -4.03534155e-03
      -8.16486496e-03 -1.76221598e-03 -1.58549962e-03 8.49925040e-04
      9.84115642e-04 -2.14938703e-03 -2.18462525e-03 -8.28081800e-04
      -2.85535376e-03 2.20282166e-03 5.43424068e-03 3.02159898e-02
      -5.22380415e-03 -2.34350166e-03 -1.17522595e-03 2.83394009e-04
      -8.72685196e-05 -2.11619982e-03 8.59500084e-04 4.51959204e-03
      -9.03380383e-03 -4.74294601e-03 -2.18675658e-03 8.12864106e-04
      3.03975423e-03 -1.62816502e-03 -2.48160702e-03 -1.83996453e-03
      7.14153098e-03 -5.50959399e-03 -2.39803898e-03 -6.80270314e-04
      8.51743156e-04 9.48170375e-04 2.90585938e-03 2.34061480e-03
      2.82743480e-04 -5.44166505e-05 -2.65855179e-03 1.11388462e-03
      1.55517692e-03 2.59202230e-03 2.15866999e-03 3.61132523e-04
      3.78707598e-04 2.20226077e-03 2.86126486e-03 -2.47099400e-02
      5.21539478e-04 1.21023250e-03 1.32890433e-04 2.99675786e-03
      -4.05788561e-03 -7.51576340e-03 -1.12912543e-02 -1.23331789e-02
      -6.03070110e-02 -9.28051677e-03 -4.76295175e-03 -2.22277828e-03
      -6.24085683e-03 2.56814645e-03 -4.53614257e-03 -2.06709467e-03
      1.44028151e-02 1.17953934e-01 -5.15930280e-02 -2.46527456e-02
      -1.41382953e-02 -6.14735531e-03 1.70045299e-03 -6.76419213e-03
      -1.60151944e-02 1.30328368e-02 -3.43736336e-02 -2.97698807e-02
      -4.35679182e-02 -1.13605941e-02 -7.22616969e-04 2.40468304e-03
      -1.51960598e-03 7.56775727e-03 9.73036513e-04 1.47152077e-02
      -2.52246018e-02 -3.41860503e-02 -2.22571846e-03 2.39986065e-03
      -3.59179988e-03 1.08267448e-03 -6.49748661e-04 -4.51786723e-03
      2.61812308e-03 2.74317455e-04 6.37095049e-03 7.16297096e-03
      -3.24287056e-03 -5.81727782e-03 5.16391080e-03 5.57965320e-03
      1.33191487e-02 -5.63310236e-02 -1.36860535e-02 2.52480176e-03
      -1.91247475e-03 -8.37995671e-03 -7.29118381e-03 2.68548587e-03
      1.14559215e-02 2.89093051e-02 -1.26621649e-01 -8.42823237e-02
      -2.37089433e-02 -1.38408435e-03 1.74277648e-03 -2.84791924e-03
      7.69490423e-03 4.16915976e-02 9.88663286e-02 -3.58872414e-02
      -1.50218129e-01 -7.47199776e-03 -5.56314178e-03 -9.75120720e-03
      -6.08015340e-03 -3.61041003e-03 2.87344381e-02 9.09309238e-02
      -1.03792518e-01 -1.98580116e-01 -7.44757280e-02 -1.67719908e-02
      -4.45753336e-03 -3.36772203e-03 5.32998843e-03 1.75612886e-02
      -4.52945791e-02 -3.45807299e-02 -7.04685301e-02 -5.99136278e-02
      -1.78321414e-02 -1.22627243e-02 -2.35295221e-02 -3.28735774e-03
      9.62616131e-03 1.57596711e-02 1.52411666e-02 1.05016073e-03
      -1.43684901e-03 1.29648834e-03 -2.49136239e-02 -3.47200185e-02
      6.41405955e-03 -1.92025825e-02 2.12215483e-02 -4.66184095e-02
      -3.46953608e-02 -2.41226936e-03 -5.14589995e-03 -3.24132107e-02
      -6.28075898e-02 -1.87860504e-02 1.88681483e-02 6.28214478e-02
      -1.37306347e-01 -1.77904725e-01 -3.16578262e-02 -2.29315702e-02
      -4.37733717e-02 -5.27444333e-02 6.57711476e-02 1.08956650e-01
      3.50334570e-02 -1.14612371e-01 -2.05324501e-01 -5.54880165e-02
      -1.50628146e-02 -2.75086686e-02 2.09949873e-02 9.30420682e-02
      6.04879372e-02 -1.73092727e-02 -2.23162547e-01 -2.34019607e-01
      -7.78186694e-02 -1.53873134e-02 -4.69876034e-03 2.98755802e-02
      1.09048605e-01 1.09023221e-01 -4.57027890e-02 -1.82919368e-01
      -1.96600214e-01 -8.69788900e-02 -1.31641747e-02 -6.11509336e-03
      -1.19227488e-02 -2.41162372e-03 2.42993589e-02 2.04453301e-02
      1.05269672e-02 -7.34476605e-03 -5.30150346e-03 -6.72411965e-03
      -2.63161846e-02 -2.51316782e-02 -6.66590175e-03 -1.13944793e-02
      8.62777792e-03 -4.18868288e-02 -4.11458537e-02 -6.23867428e-03
      -5.38729737e-03 -2.67349165e-02 -1.11269495e-02 -2.68337913e-02
      1.02271400e-01 -7.96345630e-05 -1.64188027e-01 -2.22422421e-01
      -5.53443767e-02 -2.73878872e-02 -3.79767641e-02 3.46708558e-02
      7.77951851e-02 1.85108036e-01 2.93224663e-01 -5.62076457e-02
      -2.73050934e-01 -1.11653216e-01 -5.42549118e-02 -8.93739145e-03
      7.21400827e-02 1.68231919e-01 1.09468408e-01 1.85058847e-01
      -1.47222370e-01 -2.72608459e-01 2.16724016e-02 1.11187138e-02
      6.12099916e-02 1.23378634e-01 1.00583918e-01 8.83970279e-05
      4.41456102e-02 -1.26045331e-01 -2.19350904e-01 -3.77968289e-02
      3.10017291e-04 2.13956479e-02 9.20652691e-03 -1.99304870e-03
      7.62172323e-03 5.55507280e-03 -2.36611422e-02 -8.96436349e-03
      1.55421731e-04 5.79011918e-04 1.72181409e-02 9.78700630e-03
      6.80493889e-04 1.89264249e-02 3.05928732e-03 -3.81454118e-02
      4.68818325e-04 -1.41191157e-03 5.49951149e-03 3.48241627e-02
      3.81612293e-02 6.07538335e-02 1.16824396e-01 1.39750704e-01
      -1.32253796e-01 -1.21752113e-01 -4.36124764e-02 -1.78951938e-02
      2.47769952e-02 7.62072206e-02 7.26774484e-02 8.38322714e-02
      1.20010152e-01 -5.41575775e-02 -1.58166680e-02 -6.32568821e-02
      -1.78933255e-02 7.19798356e-02 5.28843552e-02 7.34892264e-02
      7.08424300e-02 1.17292583e-01 -7.41943046e-02 -1.02748483e-01
      8.79591778e-02 4.76947427e-02 8.69188458e-02 6.46707565e-02
      2.92006284e-02 5.04780933e-02 -3.58506069e-02 -1.75175779e-02
      -1.78740565e-02 3.48322117e-03 2.34647486e-02 4.00381461e-02
      -1.13508012e-03 -1.21480110e-03 4.29202191e-04 -1.47294841e-05
      -8.60410929e-03 -6.41126838e-03 -1.07516523e-03 -1.80314016e-03
      1.24953198e-03 1.33642217e-03 8.56719562e-05 1.22518456e-02
      1.49073694e-02 1.98479667e-02 2.07090494e-03 1.50827214e-03
      1.53476314e-03 -3.52631882e-03 1.93197448e-02 1.86283197e-02
      2.83921752e-02 1.07760467e-01 2.35870425e-02 -1.91176310e-02
      -4.18052590e-03 -1.74395721e-02 6.56852126e-03 3.01203784e-02
      4.20247987e-02 2.01471243e-02 7.61419013e-02 3.37560661e-02
      3.25278901e-02 -2.62005418e-03 1.14959469e-02 4.25891504e-02
      1.19999256e-02 4.68287840e-02 8.83584619e-02 1.20439388e-01
      8.30157921e-02 1.40093109e-02 -3.29879187e-02 -3.75920463e-05
      1.41653670e-02 5.29110469e-02 4.47437614e-02 5.83546720e-02
      3.37439850e-02 -5.38007244e-02 -6.22616783e-02 -1.96960475e-02
      2.05662586e-02 3.74430083e-02 2.28712423e-04 6.61344850e-04
      -9.75553921e-05 -5.91479984e-05 -3.24153830e-03 -8.66813585e-04
      -3.36401499e-05 -2.34132778e-04 -1.01032190e-03 2.74802488e-03
      5.58001455e-04 5.38553298e-03 5.90297580e-03 1.14251571e-02
      2.25468026e-03 8.31974728e-04 -9.56561125e-05 -9.19968879e-04
      6.61774864e-03 9.42537095e-03 1.00842780e-02 2.39325296e-02
      7.93995615e-03 -2.61057075e-03 9.61864460e-03 8.57783598e-04
      1.53456838e-03 1.29642505e-02 1.28010660e-02 2.43608132e-02
      1.96608473e-02 1.82033777e-02 9.18414257e-03 1.44315707e-02
      5.62327169e-03 4.59531741e-03 2.87990682e-02 2.69758664e-02
      4.25792299e-02 4.19284105e-02 1.01126591e-02 2.62379497e-02
      -1.12675654e-03 9.98533424e-03 1.27850613e-02 3.77247995e-03
      1.54837854e-02 1.25356363e-02 9.58736800e-03 1.10643636e-02
      8.08195677e-03 1.44361891e-02 6.76421402e-03 1.02098584e-02
      3.58649471e-04 -2.83605536e-04 2.90631666e-03 4.52825800e-03
      1.23588443e-02 -2.79003289e-03 -1.23841781e-03 -8.45490285e-05
      6.07136113e-04 1.24369876e-03 -7.48045684e-04 1.32143521e-03
      3.39392363e-03 -5.02169272e-03 -2.68659741e-03 -1.44943758e-03
      1.74128800e-03 3.47439083e-03 -1.68327999e-03 -3.16168158e-03
      -1.63718208e-03 8.12314916e-03 -6.87705958e-03 -4.76995623e-03
      7.95325541e-05 3.73995933e-03 1.86198647e-03 -9.48402390e-04
      -6.65665651e-03 -8.28843936e-03 5.57801360e-03 1.48056764e-02
      -9.37101711e-03 -6.16859033e-05 2.63814535e-03 1.62549812e-04
      1.72601466e-03 -6.63794053e-04 -2.24356726e-03 3.04636592e-03
      4.88472451e-03 -2.79010180e-03 2.74752470e-04 -1.46449369e-03
      4.00794641e-04 -7.50378356e-04 -2.57616281e-03 -6.20453910e-04
      1.38666490e-02 1.67437438e-02 -2.23806058e-03 -7.52128370e-04
      -9.33306059e-04 -1.95748493e-04 2.32649059e-03 -1.35802501e-03
      3.81188176e-04 6.72253175e-03 5.86112142e-02 -2.01527160e-02
      -9.06787347e-03 -3.64779844e-03 -2.29796069e-03 2.38565099e-03
      -3.45237716e-03 -6.60712225e-03 1.69112384e-02 -8.33852496e-03
      -1.60548165e-02 -2.88151409e-02 -4.89574112e-03 2.59778183e-03
      3.58420494e-03 -1.05866222e-02 3.43469228e-03 -1.28026251e-02
      2.85755023e-02 -2.94434782e-02 -3.67433392e-02 5.75986982e-04
      -6.11988246e-04 4.38210182e-03 -1.87379364e-02 -1.02846352e-02
      -1.60310306e-02 4.33956347e-02 -2.83845458e-02 -2.38587912e-02
      -1.06328148e-02 -7.80350482e-03 2.63304776e-03 6.43609557e-03
      3.90499452e-04 3.67911234e-02 -9.80062503e-03 -1.90402139e-02
      -1.90966334e-02 -9.92132537e-03 -1.99236267e-04 -4.79687564e-03
      9.49742913e-04 -5.50544879e-04 5.69049381e-02 5.23797497e-02
      -5.10052778e-03 -1.20493788e-02 -3.60657973e-03 -1.94030278e-03
      1.12909824e-03 4.82667051e-03 2.55259238e-02 4.42150645e-02
      -1.40657112e-05 -5.89491092e-02 -5.27850026e-03 -2.69775325e-03
      -3.42639093e-03 -6.50570635e-03 -4.25608782e-03 2.85174139e-02
      6.74976856e-02 -7.90766925e-02 -1.16549388e-01 -5.12750633e-02
      -9.63156670e-03 -1.43645797e-03 -5.57930302e-03 -3.34660197e-03
      1.56997982e-02 -6.61971569e-02 -4.09420282e-02 -7.42140710e-02
      -6.88849017e-02 -2.31436044e-02 -9.49346088e-03 7.32002896e-04
      -1.06856311e-02 1.71896804e-03 1.46524562e-02 -2.12418288e-02
      -6.26412779e-02 -7.60508478e-02 -6.42051995e-02 -3.32579436e-03
      -7.01386947e-04 1.54858138e-02 5.31953238e-02 9.02214646e-02
      -4.91406862e-03 -5.14706969e-02 -7.63628110e-02 -6.90152720e-02
      -3.28086950e-02 -4.71866596e-03 2.58283876e-03 2.35667601e-02
      1.06372938e-01 8.11719149e-02 -1.10615324e-02 3.73673369e-03
      -2.44452376e-02 -1.54601457e-02 -1.64968297e-02 5.93771003e-02
      9.66981649e-02 3.10587753e-02 -5.00225462e-02 -1.04657948e-01
      -1.59125142e-02 3.40095651e-03 -9.11558326e-03 1.89783219e-02
      7.17289820e-02 6.12800121e-02 -1.60062278e-03 -2.27791131e-01
      -1.53876185e-01 -5.53595871e-02 -5.60267130e-04 6.35545468e-03
      2.90752072e-02 1.20641015e-01 1.12339564e-01 -4.92860004e-02
      -2.15574771e-01 -2.42963105e-01 -7.72831216e-02 -2.40993053e-02
      -2.93071102e-03 1.57769620e-02 2.38522459e-02 1.90485679e-02
      -8.43030773e-03 -1.33108974e-01 -4.90082465e-02 9.89424298e-04
      8.08579940e-03 2.12181304e-02 -3.64211872e-02 -8.94422265e-05
      5.59816323e-02 1.81687132e-01 -7.83777982e-02 -1.96501520e-02
      4.86927480e-03 -6.26146793e-03 -5.44030443e-02 -1.79385934e-02
      -3.33374226e-03 1.10681932e-02 8.13961327e-02 4.64102514e-02
      -5.03314734e-02 -4.31432389e-02 -3.12271919e-02 -3.85006927e-02
      3.85311246e-02 6.05714247e-02 8.16101134e-02 1.10932969e-01
      -1.85518533e-01 -1.23986661e-01 5.89171657e-03 9.81710386e-03
      2.73876041e-02 7.21091405e-02 1.41843125e-01 7.15163797e-02
      8.98780674e-02 -9.42986310e-02 -1.68581128e-01 9.18515846e-02
      4.20796536e-02 6.80878386e-02 1.24363646e-01 7.55735114e-02
      2.54160911e-02 2.49217935e-02 -1.14871502e-01 -2.97106385e-01
      -3.47267054e-02 3.66628263e-03 -1.03121847e-02 -3.01222643e-03
      -4.08094823e-02 -3.52011845e-02 5.20564280e-02 -1.14679135e-01
      -1.29355893e-01 1.30603202e-02 4.81532626e-02 -5.21987956e-03
      -8.27671215e-03 7.24435225e-03 -7.54279494e-02 5.53905554e-02
      -4.79961447e-02 -1.57091245e-02 1.59511387e-01 1.09444901e-01
      5.98317774e-06 2.39064917e-02 1.54510245e-03 1.08319689e-02
      -1.28579959e-02 -2.86915265e-02 -8.25005546e-02 -9.20689758e-03
      1.63168795e-02 1.39871370e-02 4.43598069e-02 5.32791056e-02
      2.81310193e-02 1.78069063e-02 -8.54167715e-02 8.68074410e-03
      3.48556377e-02 2.13355497e-02 5.44134714e-02 4.03286479e-02
      3.94344144e-02 4.14689481e-02 4.11794297e-02 8.05333070e-03
      -5.23981825e-02 1.37322739e-01 5.15443832e-02 7.13508874e-02
      4.95116226e-02 7.82779511e-03 3.78147773e-02 -4.34246771e-02
      1.24773094e-02 -3.28657925e-02 2.91290637e-02 4.84961756e-02
      3.12888697e-02 4.53154091e-03 -2.08298978e-03 2.05918029e-02
      1.03893474e-01 -1.52154833e-01 -7.89186507e-02 3.93634029e-02
      8.69460553e-02 -7.10176129e-04 3.30545604e-02 5.36036454e-02
      -1.47224907e-02 6.77922135e-03 -7.46647187e-04 -6.68959273e-03
      8.86775106e-02 7.06973895e-02 6.55632541e-02 1.55699048e-02
      3.24427761e-04 1.39910018e-03 -1.61615647e-02 1.08291022e-02
      -1.66716781e-02 3.96164274e-03 6.73651986e-04 1.01921214e-02
      9.52911749e-03 1.86245907e-02 1.97268501e-02 2.61694826e-02
      -6.84050890e-03 1.70603599e-02 1.26261115e-02 1.94730386e-02
      2.79390682e-02 2.06410270e-02 3.75741869e-02 6.19160011e-02
      7.42060170e-02 5.90022579e-02 1.41594354e-02 5.19130100e-03
      3.17856460e-03 1.38214510e-02 6.49030134e-02 5.60135841e-02
      3.54590937e-02 3.04425061e-02 -2.81974375e-02 -8.18309188e-02
      2.06399849e-03 3.67345922e-02 4.50825356e-02 6.20728843e-02
      3.97732146e-02 1.81812309e-02 1.74954743e-03 -1.44119486e-01
      -7.68772066e-02 5.18984310e-02 5.60416058e-02 2.63267830e-02
      2.70122699e-02 2.51007825e-02 1.48655511e-02 1.62578579e-02
      4.63154241e-02 3.19908522e-02 3.00866943e-02 2.30454318e-02
      2.76935324e-02 7.91428611e-03 9.78023931e-03 9.11220035e-04
      -1.37533303e-02 -1.41828728e-03 1.85515042e-02 2.35153995e-02
      1.42125040e-02 9.18399449e-03 7.25856470e-03 8.07611737e-03
      1.16024232e-02 5.79279289e-03 1.75451546e-03 5.29335905e-03
      1.27895083e-02 4.34000045e-03 2.47415947e-03 1.96702182e-02
      2.44261492e-02 2.76183151e-02 2.37932727e-02 8.00209120e-03
      1.69480648e-02 3.19391233e-03 7.58926850e-03 1.10352244e-02
      3.79854371e-03 2.01061275e-02 1.31912585e-02 1.29512465e-02
      1.51602449e-02 4.87501454e-03 2.45614033e-02 1.43224997e-02
      1.17765171e-02 1.05788000e-02 1.21743679e-02 -5.43224625e-04
      -8.48353561e-03 9.88970511e-03 1.14563352e-03 2.29889024e-02
      1.70831233e-02 8.96062329e-03 5.30791981e-03 1.44398781e-02
      9.05518513e-03 4.22038231e-03 1.98684223e-02 -9.10718110e-04
      9.02213063e-03 2.80245673e-03 -2.13055592e-03 1.78804784e-03
      5.82026690e-03 2.72760727e-03 -5.71647007e-03 4.30735806e-03
      3.20952921e-03 1.00696983e-03 2.41131242e-03 2.77606538e-04
      -1.85897527e-03 -3.53165786e-03 -5.39686205e-03 -7.92129617e-03
      1.55674096e-03 -4.85402439e-03 -5.50814148e-05 9.70181776e-04
      -1.23499008e-03 -2.01829807e-05 -5.09024656e-04 -2.46424181e-03
      -9.33171436e-03 -4.48485184e-03 -1.85657133e-04 1.21105404e-03
      -2.33759033e-03 -1.48023141e-03 -1.26061938e-03 -4.51588770e-03
      1.37718348e-03 4.45939451e-02 3.78748737e-02 -6.64136605e-03
      -3.59340757e-03 -2.33440660e-03 -1.96804584e-04 7.97062705e-04
      2.92954664e-03 3.06501053e-03 6.24663942e-03 -4.19984665e-03
      -7.49640027e-03 -9.15509835e-03 -4.35103709e-03 2.37784829e-04
      6.59034549e-06 1.20226177e-03 2.89220305e-04 -2.54968996e-03
      -1.23181297e-02 -1.62111083e-03 -1.98465917e-04 2.81766034e-03
      5.79340965e-04 3.42029700e-04 1.18197233e-03 -1.85713579e-04
      -3.30070639e-03 -8.48897919e-03 -7.11204775e-04 -1.90698553e-03
      6.81347505e-04 1.04156288e-03 -4.14210418e-03 -2.32307538e-02
      -1.76877230e-02 -6.00585490e-02 -2.33070366e-02 -1.88330710e-02
      -1.06414696e-02 -8.40793643e-03 -1.56947263e-02 -6.27946202e-03
      -5.99252642e-04 -1.35874620e-03 3.09552774e-02 -1.17387483e-02
      -2.16279179e-02 -2.63037439e-02 -1.39154317e-02 -4.09663515e-03
      -2.78200805e-02 1.28255505e-03 9.03455541e-03 1.70929432e-01
      1.10873602e-01 -1.44847101e-02 -2.82209832e-02 -1.59328710e-02
      -2.27416791e-02 -3.01873907e-02 4.24712634e-04 7.20210932e-03
      -2.51802132e-02 -4.30305712e-02 -1.66330021e-02 -1.10680470e-02
      -8.16410594e-03 -2.03594640e-02 -7.94618111e-03 3.21345008e-03
      2.19801953e-03 1.52292596e-02 -1.86788756e-02 -1.99883860e-02
      -8.77004210e-03 -3.31096421e-03 -4.30171378e-03 2.90044956e-03
      3.30929528e-03 -2.93695764e-03 -1.17051918e-02 -2.04603840e-02
      -7.57464534e-03 -3.07023688e-03 -1.23137189e-03 4.44806134e-03
      -3.08532035e-03 -2.28624512e-02 -1.63889267e-02 -8.66714939e-02
      -1.07030645e-01 -6.29198924e-02 -4.48891632e-02 -2.62573585e-02
      -6.65536476e-03 -9.05699842e-03 -7.19296164e-04 5.76293692e-02
      1.54532641e-01 1.96521785e-02 -7.08531216e-02 -9.71652716e-02
      -4.80534360e-02 -2.90199779e-02 -3.49397361e-02 -2.51837098e-03
      4.03844528e-02 2.24221036e-01 8.83515775e-02 -2.34078132e-02
      -4.46001161e-03 -4.10840176e-02 -4.02071029e-02 -5.51576167e-02
      8.80575925e-03 3.54380459e-02 -4.91445996e-02 -3.63488495e-02
      -2.51664501e-03 1.21566076e-02 -4.94711511e-02 -4.04058769e-02
      -3.78225967e-02 5.00823893e-02 2.73622666e-02 6.88795522e-02
      2.38212501e-03 -3.33744884e-02 -2.82323044e-02 -3.06897815e-02
      -3.95129435e-02 4.37575718e-03 2.50376128e-02 2.61408021e-03
      2.33919788e-02 4.89396974e-03 -1.45547418e-02 -1.82139911e-02
      -6.54226122e-03 -1.79034472e-02 -5.75411730e-02 -6.80212118e-03
      -9.08942893e-05 -8.52790102e-02 -2.12300465e-01 -3.26357521e-02
      6.25315635e-03 -4.66887094e-03 -2.38932520e-02 -1.32010207e-01
      -2.68763956e-02 5.25058061e-02 1.56272963e-01 -2.01032646e-02
      -5.30537479e-02 -5.56726381e-03 7.06938189e-03 -1.22340545e-01
      -1.63766354e-01 -3.72906215e-02 -8.31750687e-03 1.50093794e-01
      2.36483924e-02 -9.19406712e-02 -4.81790826e-02 -4.86886166e-02
      -1.39626160e-01 -1.84562042e-01 2.73699425e-02 9.33953971e-02
      1.16465233e-01 -7.59504959e-02 3.45618688e-02 2.51785014e-02
      -6.50386140e-02 -1.89846829e-01 -1.11839384e-01 4.23273519e-02
      6.01951256e-02 6.64196089e-02 -4.70924489e-02 3.53308953e-02
      -1.48848724e-02 -2.57550776e-02 -1.48860306e-01 -4.91260253e-02
      1.77902412e-02 1.96530041e-03 2.47604810e-02 -2.20969710e-02
      -1.31386518e-02 -2.27758288e-03 -2.91804280e-02 -5.57319485e-02
      -4.33163755e-02 -6.08335063e-02 -1.22023478e-01 2.30704015e-03
      -1.35608941e-01 -9.20428559e-02 -1.74099486e-02 3.32784280e-03
      -2.89650094e-02 -6.58263266e-02 -4.94443672e-03 -1.05486430e-01
      6.05670400e-02 -2.38435548e-02 -4.10949737e-02 1.64219111e-01
      1.37356877e-01 -4.44183536e-02 -4.68226559e-02 -1.12329833e-02
      1.50364302e-02 4.56758030e-02 -5.31032719e-02 -1.62074715e-01
      -2.18542572e-02 3.14545780e-02 -7.80103654e-02 -6.61974251e-02
      1.88309867e-02 8.56233388e-02 1.09237410e-01 -8.04830864e-02
      -1.69895254e-02 6.94447607e-02 -4.02580341e-03 -1.12344548e-01
      2.02391446e-02 1.53614273e-02 1.47051373e-02 3.09441164e-02
      -5.33468612e-02 -1.45763597e-02 5.23052644e-03 2.49120370e-02
      -8.17414895e-02 3.90263507e-03 -5.28287468e-03 -4.44581313e-03
      7.66423810e-03 -5.24826087e-02 2.00164528e-03 -9.87289008e-03
      -7.11041642e-03 -5.90430573e-03 -1.05488552e-02 -1.73399132e-02
      -2.22227890e-02 5.62883615e-02 -2.11099401e-01 -1.38463214e-01
      5.13948239e-02 1.09576836e-01 8.49614211e-04 7.53285289e-02
      5.62556833e-02 -3.18737328e-02 2.95180995e-02 8.51691812e-02
      -1.04898131e-02 1.17314301e-01 6.12534583e-02 1.07505918e-01
      5.67540191e-02 -9.66025330e-03 -3.84182809e-03 -5.13820816e-03
      -7.75339641e-03 -4.89052981e-02 2.98211370e-02 3.40790413e-02
      6.72118664e-02 3.84712890e-02 -1.19299609e-02 1.49055840e-02
      6.02280349e-02 -1.05050318e-01 -1.09855354e-01 2.56545972e-02
      1.89778693e-02 8.18133652e-02 5.77333272e-02 -3.76164764e-02
      -1.45624503e-02 -1.18363788e-02 -3.90807614e-02 5.23444125e-03
      4.64999564e-02 2.43250616e-02 5.37289158e-02 3.65638733e-02
      6.87973341e-03 -3.58590926e-03 -6.75375480e-03 -3.12429108e-02
      -9.29835078e-04 3.59735382e-03 -1.42306183e-03 3.60723659e-02
      2.29819678e-02 2.60798214e-03 1.64571665e-02 1.37867788e-02
      -1.17765486e-01 -1.19330525e-01 4.01045233e-02 6.21488169e-02
      1.02883372e-02 3.74912769e-02 1.38910804e-02 7.20466208e-03
      1.53426286e-02 8.78502429e-02 2.91275997e-02 6.01375550e-02
      4.15520966e-02 4.70926352e-02 1.76961981e-02 1.28853805e-02
      -1.63442816e-03 -2.33314056e-02 -2.33311523e-02 5.06598018e-02
      1.24851473e-01 4.14633304e-02 4.83811926e-03 5.49236953e-04
      -2.66118324e-03 1.17586190e-02 3.30012664e-02 -2.75214072e-02
      -1.18525205e-02 5.80275133e-02 2.70869918e-02 -7.62673700e-03
      -2.57779262e-03 -2.73741595e-03 9.57636628e-03 1.79827269e-02
      -5.11519499e-02 -2.02123187e-02 1.76921370e-03 5.49676968e-03
      3.67802847e-03 9.40493587e-03 -5.26387664e-03 -6.82093529e-03
      -9.57211759e-03 -3.81901255e-03 -6.56948891e-03 3.72387655e-03
      7.15368707e-03 1.20503902e-02 5.80064859e-03 3.91647127e-03
      9.85999475e-04 -9.56938881e-03 2.55157170e-03 -2.50447560e-02
      -2.05085473e-03 8.97163805e-03 3.75220412e-03 4.57567535e-03
      6.71785465e-03 8.70162435e-03 2.29869410e-03 4.12221141e-02
      -1.86777161e-03 1.52345579e-02 4.63742437e-03 1.14010728e-03
      -6.47271925e-04 4.87134745e-03 1.16647743e-02 -3.98131832e-03
      2.04771999e-02 4.96091368e-03 1.01652415e-02 3.39873554e-03
      -1.62390561e-03 -4.35501430e-03 -9.59687924e-04 7.84858968e-03
      6.98856404e-03 2.00806744e-02 4.53850301e-03 1.68880317e-02
      1.22366110e-02 -1.57868548e-03 -1.00080697e-02 -1.92821713e-03
      -6.02330500e-03 -6.11886801e-03 -1.41377514e-02 -1.59839960e-03
      6.84599858e-03 7.62505224e-03 -3.78826028e-03 -2.77993572e-03
      -1.21716654e-03 1.18125290e-05 -1.60780933e-03 1.13605743e-03
      8.74768419e-04 2.12111772e-04 7.35175796e-04 1.88797130e-03
      -2.95937731e-04 -3.77773918e-04 1.37500803e-03 5.11574268e-04
      -5.44361130e-04 -6.48071291e-04 -3.90246627e-04 -6.98254502e-04
      -1.13955652e-03 -1.04159629e-03 -1.11625995e-03 -6.70424430e-04
      2.24761519e-04 -1.59868749e-03 -2.23529898e-03 -8.78060586e-04
      -6.09000970e-04 3.03013367e-04 3.37886461e-03 1.02838222e-03
      1.37128551e-02 3.18147847e-03 -2.83371806e-02 -1.71934813e-02
      -3.81935737e-03 3.79168414e-05 2.27909978e-03 8.07856396e-03
      3.44511704e-03 1.16760312e-02 2.61743907e-02 -2.04763077e-02
      -1.98375303e-02 -8.02627765e-03 -2.71679508e-03 3.02825193e-03
      3.48785589e-03 8.78655538e-03 7.70954089e-03 1.34128258e-02
      -2.91495882e-02 -3.63772884e-02 1.26064755e-02 3.38429469e-03
      6.79584779e-03 5.50792972e-03 3.52787320e-03 -2.70535913e-03
      -7.01297482e-04 -6.86783902e-03 -2.25618593e-02 -3.23178316e-03
      -2.96947983e-04 2.27480172e-03 -2.18991446e-03 -1.30025588e-03
      4.19933378e-04 -1.70191670e-05 -9.31647420e-03 -5.28150052e-03
      -1.36768795e-03 -4.64829936e-04 1.87493191e-04 -1.90774840e-03
      -1.56973302e-03 2.37053889e-03 1.42035773e-03 -6.71723066e-03
      1.32965762e-03 -2.59023020e-03 -2.59144203e-04 2.58626044e-03
      5.95710613e-03 1.52894221e-02 3.95092033e-02 6.97068572e-02
      -7.36773089e-02 -2.82680430e-02 -1.30677847e-02 -1.15973046e-02
      2.39582337e-03 7.96741340e-03 2.64952872e-02 2.58755852e-02
      1.89524330e-02 -3.31405178e-02 4.40348722e-02 -8.47302144e-04
      -4.13771207e-03 2.37798542e-02 1.02293408e-02 1.35308886e-02
      2.40170620e-02 2.88662594e-02 -1.75258778e-02 -5.54007627e-02
      2.63680462e-02 -2.76923878e-03 1.38263078e-02 1.30184162e-02
      1.16717471e-02 1.23465173e-02 -1.92225873e-02 -2.16639042e-02
      -4.46218960e-02 -2.31939107e-02 1.27721508e-03 8.17081518e-03
      -2.59126909e-03 -2.11256882e-03 -2.32917583e-03 -1.39348104e-03
      -1.94719806e-02 -1.16404118e-02 -2.65193102e-03 -4.97167837e-03
      -3.85790435e-03 2.63861008e-03 -1.42696081e-03 3.95314116e-03
      1.65829286e-02 1.78212952e-02 -4.58053401e-04 1.84173917e-03
      -1.47778704e-03 -1.41832344e-02 1.88058466e-02 2.04183254e-02
      1.94413699e-02 1.07054532e-01 1.26468372e-02 -3.19469646e-02
      2.84028277e-02 1.05271451e-02 -2.99407460e-04 2.44685356e-02
      3.11035197e-02 3.29495594e-03 3.52084748e-02 -3.53526808e-02
      3.34718823e-02 2.32500397e-02 5.18532395e-02 5.06233573e-02
      -2.14753021e-03 6.21153489e-02 1.34178653e-01 9.35529172e-02
      -1.43514248e-02 -7.40840891e-03 -7.18160942e-02 4.07090895e-02
      -1.22544365e-02 5.02461717e-02 7.83516169e-02 5.41242734e-02
      -1.14828805e-02 -6.74258918e-02 -1.15396418e-01 -3.30167115e-02
      2.82610450e-02 3.42077129e-02 -6.89262943e-03 9.69957793e-04
      -4.65430832e-03 -1.03997029e-02 -3.49387079e-02 -2.24966859e-03
      -2.81833299e-03 1.40024204e-04 -1.79065801e-02 -1.87477632e-03
      4.72373888e-03 1.10046072e-02 3.41597125e-02 2.11232919e-02
      -5.20636968e-04 -9.33283195e-03 -5.76376682e-03 -1.64901633e-02
      2.94458289e-02 4.34248112e-02 2.08461378e-02 8.11640471e-02
      -1.17068635e-02 -5.92938773e-02 6.01990558e-02 1.30516838e-03
      1.75609160e-02 7.17800930e-02 9.75193605e-02 3.75390239e-02
      -4.52958867e-02 -1.06862551e-02 -3.21689546e-02 7.80290216e-02
      5.98070957e-03 3.08437329e-02 4.40041013e-02 1.22443832e-01
      1.14214890e-01 9.38623212e-03 -9.48949009e-02 1.12447329e-01
      8.05294439e-02 1.06474839e-01 6.26487359e-02 -2.39956416e-02
      4.03939299e-02 1.23401135e-02 -3.51771563e-02 9.70274396e-03
      6.08547702e-02 8.69429111e-02 1.21420333e-02 2.04901937e-02
      -2.88219154e-02 -6.17103698e-03 5.64061943e-03 -3.58983572e-03
      -1.03329187e-02 -7.98393507e-03 -2.02960079e-03 3.57580697e-03
      -1.76781695e-02 -5.58942892e-02 -1.22557916e-02 3.42468335e-03
      6.35581464e-02 6.35509491e-02 -2.82792356e-02 3.27772717e-03
      -7.05738971e-03 -2.19490360e-02 -9.48756002e-03 -6.05060905e-03
      -4.19819169e-02 3.18067754e-03 -4.45126407e-02 -1.50821328e-01
      6.31683543e-02 2.21545603e-02 6.06437884e-02 4.33930457e-02
      4.16446626e-02 3.11399177e-02 -1.20505549e-01 -9.18654725e-02
      -2.00966932e-02 1.28355533e-01 -3.27901840e-02 3.20246369e-02
      1.56303961e-02 1.12623023e-02 1.02984142e-02 -1.06529474e-01
      -4.52863798e-02 4.62150238e-02 8.14430788e-02 9.66058746e-02
      9.93496254e-02 2.82228943e-02 2.94383392e-02 2.35317629e-02
      -4.52060811e-02 -5.54412492e-02 1.22637033e-01 1.06022201e-01
      6.38001934e-02 5.88458367e-02 -2.77037751e-02 -1.32282330e-02
      -9.70062800e-03 1.50739448e-03 -1.36861773e-02 -1.01534640e-02
      -3.54483281e-03 4.56204667e-04 -1.01835718e-02 -5.86166792e-02
      -1.67989712e-02 -7.30290357e-03 2.40362007e-02 8.85276198e-02
      -1.22750569e-02 -8.74562282e-03 -2.01915391e-02 -2.90006921e-02
      -2.66853981e-02 -1.84942689e-02 -2.71764938e-02 4.49392153e-03
      -6.85308650e-02 -3.45912091e-02 1.75688975e-02 1.93655642e-03
      -1.38102574e-02 3.07106347e-05 1.81969088e-02 -5.26982434e-02
      -1.31063178e-01 -1.78197071e-01 4.21540104e-02 8.81031156e-02
      9.81591525e-04 1.88701693e-02 8.22895765e-03 7.66349770e-03
      -5.55563420e-02 -3.40118110e-01 -1.65354550e-01 2.00987235e-01
      -1.28723858e-02 2.19603442e-03 4.94933352e-02 1.50114493e-02
      1.15569001e-02 -2.57583149e-02 -1.26404583e-01 -1.18972510e-01
      1.60850182e-01 2.84337476e-02 1.32001964e-02 4.29350734e-02
      -1.88830611e-03 -1.50666293e-03 -2.21371348e-03 -5.57790045e-03
      -6.46337634e-03 -5.20463055e-03 -9.70486086e-04 -8.57196574e-04
      -1.62722671e-03 -6.77902577e-03 -5.30287670e-03 -6.57356111e-03
      6.17955439e-03 5.82302883e-02 3.28042544e-03 -1.13975210e-03
      -4.33151470e-03 -9.49117541e-03 -1.47283135e-03 -1.53952220e-03
      -6.51697628e-03 3.33895418e-03 -1.23636678e-01 2.59842305e-03
      1.45698842e-02 2.76010181e-03 -1.31167821e-03 7.48548517e-03
      -5.47530316e-03 -4.32901643e-02 -2.67570987e-02 -1.30482301e-01
      1.81791112e-02 4.41638567e-02 1.33109875e-02 5.77871595e-03
      1.51866572e-02 5.96860657e-03 -4.37181182e-02 -1.25825509e-01
      -1.31611958e-01 9.00935754e-03 6.81434106e-03 6.69412781e-04
      -7.21686287e-03 -8.67648632e-04 2.31320392e-02 2.48011388e-03
      -4.03292365e-02 -1.18757635e-01 3.14597823e-02 -8.92505329e-03
      5.85201057e-03 8.99715908e-03 -1.07160409e-03 3.45051754e-04
      2.30160469e-04 -1.03540963e-03 -2.07478181e-03 -2.09177751e-03
      -4.59253526e-04 -1.06100331e-03 -7.99304107e-04 -2.09152908e-03
      -1.35456107e-03 -2.00242014e-03 2.51363940e-03 4.43278113e-03
      -5.50477824e-04 7.98338384e-04 -1.89093477e-03 -5.91752469e-04
      1.26740790e-03 -1.01752591e-03 -4.14538989e-03 -8.84525478e-04
      -4.76303250e-02 -4.01656236e-03 6.92971423e-03 7.72093073e-04
      1.82632601e-03 -1.04895642e-03 -1.76473812e-03 -6.10723672e-03
      -1.58190262e-02 -4.81683128e-02 6.58176141e-03 1.66809410e-02
      3.31878546e-03 4.84379055e-03 1.74770167e-03 3.16389464e-03
      -1.20591540e-02 -2.05442067e-02 -8.47384781e-02 -1.25873629e-02
      -1.14886183e-03 -1.91509724e-03 -2.96020950e-03 -1.30667049e-03
      -2.84683262e-03 -9.97564103e-03 -2.41765566e-03 -3.68774906e-02
      -2.89283390e-03 6.34189509e-03 1.52917334e-03 8.19690933e-04
      5.12336381e-03 2.12443527e-03 2.68422742e-03 1.02854380e-02
      -1.41510814e-02 -6.11131778e-03 2.85040704e-03 1.21095404e-03
      3.33429943e-03 3.50428815e-03 5.90711832e-03 3.82657652e-03
      2.73007923e-03 -1.55475521e-02 -1.57403704e-02 2.65281741e-02
      5.81536815e-03 6.28596591e-03 5.69056952e-03 1.28409627e-03
      -4.42308234e-03 -2.54718307e-03 -8.22743215e-03 -2.65402049e-02
      3.36157740e-04 4.81186522e-04 5.79688582e-04 -3.26531212e-04
      -2.61334982e-03 -6.56373939e-03 6.92831539e-03 -2.48121638e-02
      -1.33851478e-02 1.54525123e-03 2.13744794e-03 -9.19512589e-04
      1.06878416e-03 2.38762889e-03 -6.29007630e-03 6.66326960e-04
      -1.71127226e-02 -2.75890576e-03 1.33676445e-02 8.75780173e-03
      2.96958443e-03 1.34915777e-03 -2.66507443e-04 1.80875897e-04
      -2.17577931e-03 -4.78414167e-03 -8.60259403e-03 -1.45704695e-03
      1.57800736e-03 2.04484537e-03 5.56622865e-03 1.68073084e-02
      1.31345652e-02 5.99989016e-03 -3.48233767e-02 3.08190342e-02
      2.13900097e-02 7.52977468e-03 1.93526074e-02 8.00213311e-03
      8.99829436e-03 1.86391361e-02 2.00074427e-02 1.49083836e-03
      -2.13174592e-03 6.13449104e-02 -3.04601225e-03 9.73966904e-03
      6.95888745e-03 1.35993119e-03 5.42693026e-03 -2.54643764e-02
      -5.67932730e-04 -4.93132584e-02 -3.88200791e-03 1.07228486e-02
      4.11037682e-03 4.20246366e-03 -3.05612828e-03 1.17026139e-02
      2.60868669e-02 -1.68075144e-01 -4.66183349e-02 2.68025603e-02
      2.07778271e-02 -2.34978320e-03 1.37687773e-02 1.45858396e-02
      6.75067888e-04 1.43571384e-03 -3.35514471e-02 4.22879530e-04
      2.58470941e-02 2.46865023e-02 2.78920066e-02 5.68207493e-03
      -2.41198624e-03 -4.66225343e-03 -7.07750302e-03 -1.58593524e-02
      -7.76721025e-03 1.01247923e-02 4.82577551e-03 6.91937376e-03
      1.16700958e-02 1.44225843e-02 1.30642429e-02 1.40127605e-02
      -7.33434185e-02 5.20295687e-02 3.03026401e-02 3.74985002e-02
      3.67924720e-02 6.88304985e-03 6.36356995e-02 1.01318747e-01
      8.52189735e-02 2.37375591e-02 -1.44343190e-02 -4.01970968e-02
      2.16161888e-02 -5.96308056e-03 5.20590581e-02 7.63762593e-02
      2.97171809e-02 1.62959695e-02 -3.93840857e-02 -1.56566679e-01
      -3.40044238e-02 3.76235060e-02 3.50090973e-02 7.09685534e-02
      3.59646901e-02 5.58474706e-03 -4.44358252e-02 -1.75393775e-01
      -1.87848702e-01 -3.19216438e-02 4.65811975e-02 3.46518941e-02
      2.87052747e-02 2.37824731e-02 2.48895790e-02 1.63003197e-03
      2.75577456e-02 3.92439403e-03 2.74137966e-02 5.30604972e-03
      1.79935116e-02 -3.84038966e-03 7.64231337e-03 -8.03676900e-03
      -3.56049761e-02 -3.16873491e-02 7.07154674e-03 1.94833633e-02
      9.98944044e-03 -5.15783206e-03 4.56433110e-02 7.70865977e-02
      4.54953797e-02 -4.79778051e-02 -1.24382459e-01 1.18582854e-02
      7.32545778e-02 1.64439920e-02 2.32075453e-02 3.16608697e-02
      1.18252650e-01 1.04365744e-01 8.60144105e-03 -4.09886055e-02
      1.17714979e-01 4.64164838e-02 4.32083867e-02 3.68326567e-02
      -4.93717007e-02 5.32104932e-02 -8.43708497e-03 -2.73667816e-02
      7.28451414e-03 6.72121719e-02 1.00378953e-01 -4.80860984e-03
      1.18239895e-02 4.35941219e-02 2.24140901e-02 -7.09849820e-02
      -1.45243183e-01 -4.79937270e-02 -4.13771346e-02 3.12517285e-02
      7.39512295e-02 6.62263036e-02 1.79880392e-02 4.22220491e-02
      5.15906438e-02 -1.46487337e-02 -1.99047606e-02 -6.24778904e-02
      2.74522211e-02 2.45764293e-02 -2.35191472e-02 -1.46079017e-02
      1.18625434e-02 1.12501774e-02 -4.01770435e-02 -7.28195235e-02
      -2.84171347e-02 -2.48152893e-02 9.23408661e-03 1.43882551e-03
      3.04805357e-02 2.49767061e-02 2.78481357e-02 -5.19789048e-02
      -6.74924478e-02 -2.90504340e-02 6.33186996e-02 -1.07005406e-02
      2.46765483e-02 -1.68665294e-02 3.13857757e-03 2.38669217e-02
      -5.88570610e-02 -1.24070719e-02 1.70743708e-02 5.87600581e-02
      7.14763552e-02 5.41676544e-02 4.57297675e-02 7.31080920e-02
      2.46914439e-02 -9.28390771e-02 -1.55681865e-02 1.35244206e-01
      6.52874708e-02 4.66134138e-02 6.21506907e-02 -1.16714276e-02
      2.37023644e-02 6.08718358e-02 -6.23793565e-02 -8.56955722e-02
      1.02204271e-01 8.12230036e-02 -3.49742621e-02 2.84675024e-02
